{"learner":{"attributes":{"scikit_learn":"{\"_estimator_type\": \"regressor\"}"},"feature_names":["hour","day_of_week","is_weekend","lag_1h_fee","lag_24h_fee","ma_6h_fee","ma_24h_fee","avg_operation_count","ledger_capacity_usage"],"feature_types":["int","int","i","float","float","float","float","float","float"],"gradient_booster":{"model":{"cats":{"enc":[],"feature_segments":[],"sorted_idx":[]},"gbtree_model_param":{"num_parallel_tree":"1","num_trees":"100"},"iteration_indptr":[0,1,2,3,4,5,6,7,8,9,10,11,12,13,14,15,16,17,18,19,20,21,22,23,24,25,26,27,28,29,30,31,32,33,34,35,36,37,38,39,40,41,42,43,44,45,46,47,48,49,50,51,52,53,54,55,56,57,58,59,60,61,62,63,64,65,66,67,68,69,70,71,72,73,74,75,76,77,78,79,80,81,82,83,84,85,86,87,88,89,90,91,92,93,94,95,96,97,98,99,100],"tree_info":[0,0,0,0,0,0,0,0,0,0,0,0,0,0,0,0,0,0,0,0,0,0,0,0,0,0,0,0,0,0,0,0,0,0,0,0,0,0,0,0,0,0,0,0,0,0,0,0,0,0,0,0,0,0,0,0,0,0,0,0,0,0,0,0,0,0,0,0,0,0,0,0,0,0,0,0,0,0,0,0,0,0,0,0,0,0,0,0,0,0,0,0,0,0,0,0,0,0,0,0],"trees":[{"base_weights":[-5.4567854E-6,-2.0993858E1,6.9550604E2,-3.290011E1,1.5009421E2,4.9766998E2,1.3027054E2,-4.8925827E1,-5.890616E0,1.0194576E2,1.9382812E1,3.6375957E1,5.9329803E1,-6.500593E1,-3.92505E1,-1.0542017E1,4.947209E1,7.483223E1,1.2777148E2,-3.966105E0,-7.4402995E0,-5.7660275E0,-3.4966838E0,4.5370993E-1,-2.1028225E0,2.8635845E0,1.3959167E1,7.896238E0,2.4478912E-2,7.456249E0,1.5224062E1],"categories":[],"categories_nodes":[],"categories_segments":[],"categories_sizes":[],"default_left":[0,0,0,0,0,0,0,0,0,0,0,0,0,0,0,0,0,0,0,0,0,0,0,0,0,0,0,0,0,0,0],"id":0,"left_children":[1,3,5,7,9,11,-1,13,15,17,-1,-1,-1,19,21,23,25,27,29,-1,-1,-1,-1,-1,-1,-1,-1,-1,-1,-1,-1],"loss_changes":[1.544823E7,2.0969549E6,3.075586E6,4.1567744E5,1.21323375E5,1.043215E5,0E0,9.126325E4,9.2969125E4,1.424625E4,0E0,0E0,0E0,5.0636812E4,2.7872188E4,5.2592156E4,4.857978E4,5.83375E3,9.480203E3,0E0,0E0,0E0,0E0,0E0,0E0,0E0,0E0,0E0,0E0,0E0,0E0],"parents":[2147483647,0,0,1,1,2,2,3,3,4,4,5,5,7,7,8,8,9,9,13,13,14,14,15,15,16,16,17,17,18,18],"right_children":[2,4,6,8,10,12,-1,14,16,18,-1,-1,-1,20,22,24,26,28,30,-1,-1,-1,-1,-1,-1,-1,-1,-1,-1,-1,-1],"split_conditions":[7.579692E2,6.574289E2,8.531916E2,1.6E2,6.9961255E2,7.8525275E2,1.3027054E2,6E0,6.323163E2,1.59E2,1.9382812E1,3.6375957E1,5.9329803E1,2E0,1.18666664E2,1.47E2,4.39E2,3.1816666E2,6.717983E2,-3.966105E0,-7.4402995E0,-5.7660275E0,-3.4966838E0,4.5370993E-1,-2.1028225E0,2.8635845E0,1.3959167E1,7.896238E0,2.4478912E-2,7.456249E0,1.5224062E1],"split_indices":[7,7,7,5,7,7,0,0,7,4,0,0,0,0,5,3,3,5,7,0,0,0,0,0,0,0,0,0,0,0,0],"split_type":[0,0,0,0,0,0,0,0,0,0,0,0,0,0,0,0,0,0,0,0,0,0,0,0,0,0,0,0,0,0,0],"sum_hessian":[1.056E3,1.026E3,3E1,9.6E2,6.6E1,2.4E1,6E0,6.02E2,3.58E2,3.3E1,3.3E1,1.2E1,1.2E1,2.24E2,3.78E2,3.31E2,2.7E1,1.8E1,1.5E1,6.2E1,1.62E2,6.9E1,3.09E2,1.36E2,1.95E2,2.3E1,4E0,1.7E1,1E0,6E0,9E0],"tree_param":{"num_deleted":"0","num_feature":"9","num_nodes":"31","size_leaf_vector":"1"}},{"base_weights":[2.5587693E-1,-1.8851152E1,6.33245E2,-2.9615814E1,1.3583081E2,4.5173123E2,1.1910449E2,-4.406752E1,-5.259282E0,9.265122E1,1.750154E2,3.578825E1,5.788087E1,-5.8556038E1,-3.5349888E1,-9.492776E0,4.5125694E1,6.7765884E1,1.1641185E2,1.4448264E1,2.0831343E1,-3.5757892E0,-6.7008348E0,-5.1976624E0,-3.148143E0,4.0867066E-1,-1.8936125E0,2.5891576E0,1.2842433E1,2.9806411E0,7.9193816E0,8.474933E0,1.6911955E1],"categories":[],"categories_nodes":[],"categories_segments":[],"categories_sizes":[],"default_left":[0,0,0,0,0,0,0,0,0,0,0,0,0,0,0,0,0,0,0,0,0,0,0,0,0,0,0,0,0,0,0,0,0],"id":1,"left_children":[1,3,5,7,9,11,-1,13,15,17,19,-1,-1,21,23,25,27,29,31,-1,-1,-1,-1,-1,-1,-1,-1,-1,-1,-1,-1,-1,-1],"loss_changes":[1.2795868E7,1.7140795E6,2.600666E6,3.3803388E5,9.7147E4,9.1006E4,0E0,7.4092375E4,7.700468E4,1.2215156E4,4.4693125E3,0E0,0E0,4.096075E4,2.2740938E4,4.265167E4,4.1535824E4,5.8816797E3,1.2368969E4,0E0,0E0,0E0,0E0,0E0,0E0,0E0,0E0,0E0,0E0,0E0,0E0,0E0,0E0],"parents":[2147483647,0,0,1,1,2,2,3,3,4,4,5,5,7,7,8,8,9,9,10,10,13,13,14,14,15,15,16,16,17,17,18,18],"right_children":[2,4,6,8,10,12,-1,14,16,18,20,-1,-1,22,24,26,28,30,32,-1,-1,-1,-1,-1,-1,-1,-1,-1,-1,-1,-1,-1,-1],"split_conditions":[7.579692E2,6.574289E2,8.531916E2,1.6E2,6.9961255E2,7.990157E2,1.1910449E2,6E0,6.323163E2,1.59E2,7.280172E2,3.578825E1,5.788087E1,2E0,1.18666664E2,1.47E2,4.39E2,6.6832874E2,1.6E1,1.4448264E1,2.0831343E1,-3.5757892E0,-6.7008348E0,-5.1976624E0,-3.148143E0,4.0867066E-1,-1.8936125E0,2.5891576E0,1.2842433E1,2.9806411E0,7.9193816E0,8.474933E0,1.6911955E1],"split_indices":[7,7,7,5,7,7,0,0,7,4,7,0,0,0,5,3,3,7,0,0,0,0,0,0,0,0,0,0,0,0,0,0,0],"split_type":[0,0,0,0,0,0,0,0,0,0,0,0,0,0,0,0,0,0,0,0,0,0,0,0,0,0,0,0,0,0,0,0,0],"sum_hessian":[1.056E3,1.026E3,3E1,9.6E2,6.6E1,2.4E1,6E0,6.02E2,3.58E2,3.3E1,3.3E1,1.6E1,8E0,2.24E2,3.78E2,3.31E2,2.7E1,1.8E1,1.5E1,2E1,1.3E1,6.2E1,1.62E2,6.9E1,3.09E2,1.36E2,1.95E2,2.3E1,4E0,5E0,1.3E1,1.1E1,4E0],"tree_param":{"num_deleted":"0","num_feature":"9","num_nodes":"33","size_leaf_vector":"1"}},{"base_weights":[4.9487403E-1,-1.6900904E1,5.767842E2,-2.6659098E1,1.23315895E2,4.1030487E2,1.0889553E2,-3.969165E1,-4.6945057E0,8.445336E1,1.5855148E2,2.9714651E1,4.9190136E1,-5.2746105E1,-3.1836914E1,-8.547972E0,4.1164253E1,3.2686504E1,9.225156E1,1.3537088E2,2.0064787E1,-3.2238863E0,-6.034862E0,-4.6853213E0,-2.834344E0,-1.4603008E0,1.1694072E0,2.34103E0,1.1815038E1,4.7755466E0,1.699056E-1,6.859717E0,1.2004551E1,1.3777556E1,3.8829255E0],"categories":[],"categories_nodes":[],"categories_segments":[],"categories_sizes":[],"default_left":[0,0,0,0,0,0,0,0,0,0,0,0,0,0,0,0,0,0,0,0,0,0,0,0,0,0,0,0,0,0,0,0,0,0,0],"id":2,"left_children":[1,3,5,7,9,11,-1,13,15,17,19,-1,-1,21,23,25,27,29,31,33,-1,-1,-1,-1,-1,-1,-1,-1,-1,-1,-1,-1,-1,-1,-1],"loss_changes":[1.0606174E7,1.4084932E6,2.196438E6,2.749043E5,7.8355875E4,8.46665E4,0E0,6.0151938E4,6.3792617E4,1.0710016E4,6.0160625E3,0E0,0E0,3.3133438E4,1.8554031E4,4.086279E4,3.55047E4,2.7205522E3,1.0831219E4,4.5409375E2,0E0,0E0,0E0,0E0,0E0,0E0,0E0,0E0,0E0,0E0,0E0,0E0,0E0,0E0,0E0],"parents":[2147483647,0,0,1,1,2,2,3,3,4,4,5,5,7,7,8,8,9,9,10,10,13,13,14,14,15,15,16,16,17,17,18,18,19,19],"right_children":[2,4,6,8,10,12,-1,14,16,18,20,-1,-1,22,24,26,28,30,32,34,-1,-1,-1,-1,-1,-1,-1,-1,-1,-1,-1,-1,-1,-1,-1],"split_conditions":[7.579692E2,6.574289E2,8.531916E2,1.6E2,6.9961255E2,7.8525275E2,1.0889553E2,6E0,6.323163E2,1.16E2,7.3186365E2,2.9714651E1,4.9190136E1,2E0,1.18666664E2,5E0,4.39E2,1.02E2,1.5E1,5.24E2,2.0064787E1,-3.2238863E0,-6.034862E0,-4.6853213E0,-2.834344E0,-1.4603008E0,1.1694072E0,2.34103E0,1.1815038E1,4.7755466E0,1.699056E-1,6.859717E0,1.2004551E1,1.3777556E1,3.8829255E0],"split_indices":[7,7,7,5,7,7,0,0,7,4,7,0,0,0,5,1,3,4,0,3,0,0,0,0,0,0,0,0,0,0,0,0,0,0,0],"split_type":[0,0,0,0,0,0,0,0,0,0,0,0,0,0,0,0,0,0,0,0,0,0,0,0,0,0,0,0,0,0,0,0,0,0,0],"sum_hessian":[1.056E3,1.026E3,3E1,9.6E2,6.6E1,2.4E1,6E0,6.02E2,3.58E2,3.3E1,3.3E1,1.2E1,1.2E1,2.24E2,3.78E2,3.31E2,2.7E1,5E0,2.8E1,2.4E1,9E0,6.2E1,1.62E2,6.9E1,3.09E2,2.55E2,7.6E1,2.3E1,4E0,3E0,2E0,1.7E1,1.1E1,2.3E1,1E0],"tree_param":{"num_deleted":"0","num_feature":"9","num_nodes":"35","size_leaf_vector":"1"}},{"base_weights":[6.78522E-1,-1.515373E1,5.251638E2,-2.3996216E1,1.1190274E2,3.7243057E2,9.956164E1,-3.4708202E1,-1.9179575E0,7.670831E1,1.4380591E2,2.9165024E1,4.8363445E1,-4.6660725E1,-2.7823093E1,-5.9009986E0,3.6117634E1,5.474367E1,9.7997055E1,1.2254021E1,1.8258957E1,-2.6301646E0,-5.4793158E0,-8.60201E-1,-3.0033646E0,-1.2626711E0,2.194794E0,-8.071952E-1,5.8616023E0,2.212111E0,6.4814506E0,5.0411935E0,1.2150694E1],"categories":[],"categories_nodes":[],"categories_segments":[],"categories_sizes":[],"default_left":[0,0,0,0,0,0,0,0,0,0,0,0,0,0,0,0,0,0,0,0,0,0,0,0,0,0,0,0,0,0,0,0,0],"id":3,"left_children":[1,3,5,7,9,11,-1,13,15,17,19,-1,-1,21,23,25,27,29,31,-1,-1,-1,-1,-1,-1,-1,-1,-1,-1,-1,-1,-1,-1],"loss_changes":[8.785057E6,1.1565146E6,1.856668E6,2.2721188E5,6.4197438E4,8.352525E4,0E0,5.194625E4,4.793479E4,1.0533656E4,5.667375E3,0E0,0E0,3.746753E4,1.7289688E4,5.3846055E4,3.029898E4,4.808426E3,1.1774125E4,0E0,0E0,0E0,0E0,0E0,0E0,0E0,0E0,0E0,0E0,0E0,0E0,0E0,0E0],"parents":[2147483647,0,0,1,1,2,2,3,3,4,4,5,5,7,7,8,8,9,9,10,10,13,13,14,14,15,15,16,16,17,17,18,18],"right_children":[2,4,6,8,10,12,-1,14,16,18,20,-1,-1,22,24,26,28,30,32,-1,-1,-1,-1,-1,-1,-1,-1,-1,-1,-1,-1,-1,-1],"split_conditions":[7.579692E2,6.574289E2,8.531916E2,1.6716667E2,6.9961255E2,7.990157E2,9.956164E1,6E0,6.302177E2,1.59E2,7.3186365E2,2.9165024E1,4.8363445E1,2E0,7E0,5E0,1.41E2,6.6832874E2,6.717983E2,1.2254021E1,1.8258957E1,-2.6301646E0,-5.4793158E0,-8.60201E-1,-3.0033646E0,-1.2626711E0,2.194794E0,-8.071952E-1,5.8616023E0,2.212111E0,6.4814506E0,5.0411935E0,1.2150694E1],"split_indices":[7,7,7,5,7,7,0,0,7,4,7,0,0,0,0,1,4,7,7,0,0,0,0,0,0,0,0,0,0,0,0,0,0],"split_type":[0,0,0,0,0,0,0,0,0,0,0,0,0,0,0,0,0,0,0,0,0,0,0,0,0,0,0,0,0,0,0,0,0],"sum_hessian":[1.056E3,1.026E3,3E1,9.6E2,6.6E1,2.4E1,6E0,6.46E2,3.14E2,3.3E1,3.3E1,1.6E1,8E0,2.34E2,4.12E2,2.85E2,2.9E1,1.8E1,1.5E1,2.4E1,9E0,6.8E1,1.66E2,4.3E1,3.69E2,2.3E2,5.5E1,1E1,1.9E1,5E0,1.3E1,6E0,9E0],"tree_param":{"num_deleted":"0","num_feature":"9","num_nodes":"33","size_leaf_vector":"1"}},{"base_weights":[8.259019E-1,-1.0394451E1,6.143586E2,-2.0725412E1,1.3979091E2,4.077591E1,9.102778E1,-3.1095026E1,4.568106E-2,1.04722275E2,2.3677382E1,-4.2029167E1,-2.4828476E1,-5.1771073E0,3.9627716E1,6.4520183E0,1.12954E2,-2.3709607E0,-4.9346657E0,-3.791043E0,-2.1192014E0,4.0850043E0,-8.9502174E-1,-1.3768944E0,5.006987E0,1.1468335E1,2.1890092E0],"categories":[],"categories_nodes":[],"categories_segments":[],"categories_sizes":[],"default_left":[0,0,0,0,0,0,0,0,0,0,0,0,0,0,0,0,0,0,0,0,0,0,0,0,0,0,0],"id":4,"left_children":[1,3,5,7,9,-1,-1,11,13,15,-1,17,19,21,23,-1,25,-1,-1,-1,-1,-1,-1,-1,-1,-1,-1],"loss_changes":[7.28283E6,1.614967E6,7.904245E5,2.0957416E5,2.0307538E5,0E0,0E0,4.34255E4,6.739195E4,9.5896875E3,0E0,3.0332562E4,1.8938969E4,5.0381273E4,2.18773E4,0E0,3.946375E3,0E0,0E0,0E0,0E0,0E0,0E0,0E0,0E0,0E0,0E0],"parents":[2147483647,0,0,1,1,2,2,3,3,4,4,7,7,8,8,9,9,11,11,12,12,13,13,14,14,16,16],"right_children":[2,4,6,8,10,-1,-1,12,14,16,-1,18,20,22,24,-1,26,-1,-1,-1,-1,-1,-1,-1,-1,-1,-1],"split_conditions":[7.8525275E2,6.717983E2,8.531916E2,1.6716667E2,7.446115E2,4.077591E1,9.102778E1,6E0,6.323163E2,1.7566667E2,2.3677382E1,2E0,1.22333336E2,1.5070833E2,1.24E2,6.4520183E0,6.83E2,-2.3709607E0,-4.9346657E0,-3.791043E0,-2.1192014E0,4.0850043E0,-8.9502174E-1,-1.3768944E0,5.006987E0,1.1468335E1,2.1890092E0],"split_indices":[7,7,7,5,7,0,0,0,7,5,0,0,5,6,4,0,4,0,0,0,0,0,0,0,0,0,0],"split_type":[0,0,0,0,0,0,0,0,0,0,0,0,0,0,0,0,0,0,0,0,0,0,0,0,0,0,0],"sum_hessian":[1.056E3,1.038E3,1.8E1,9.72E2,6.6E1,1.2E1,6E0,6.48E2,3.24E2,5E1,1.6E1,2.34E2,4.14E2,2.87E2,3.7E1,1E1,4E1,6.8E1,1.66E2,8.8E1,3.26E2,2.1E1,2.66E2,6E0,3.1E1,3.9E1,1E0],"tree_param":{"num_deleted":"0","num_feature":"9","num_nodes":"27","size_leaf_vector":"1"}},{"base_weights":[9.0338135E-1,-9.319019E0,5.5985974E2,-1.8659445E1,1.26465355E2,3.701198E1,8.3225395E1,-2.8005888E1,6.2095664E-2,9.4644356E1,2.1448923E1,-3.785734E1,-2.2359869E1,-4.6483226E0,3.576047E1,7.191945E1,1.08154465E2,-2.1373012E0,-4.4441543E0,-1.5656027E0,-2.840459E0,-1.0585552E0,2.0137804E0,-1.258875E0,4.5219355E0,4.3266416E0,1.0849979E1,1.1640313E1,7.092027E0],"categories":[],"categories_nodes":[],"categories_segments":[],"categories_sizes":[],"default_left":[0,0,0,0,0,0,0,0,0,0,0,0,0,0,0,0,0,0,0,0,0,0,0,0,0,0,0,0,0],"id":5,"left_children":[1,3,5,7,9,-1,-1,11,13,15,-1,17,19,21,23,25,27,-1,-1,-1,-1,-1,-1,-1,-1,-1,-1,-1,-1],"loss_changes":[6.044784E6,1.3201068E6,6.73964E5,1.702571E5,1.6736725E5,0E0,0E0,3.5251875E4,5.481637E4,7.8794062E3,0E0,2.4556188E4,1.6372281E4,4.2595516E4,1.7947773E4,1.836464E4,9.58625E2,0E0,0E0,0E0,0E0,0E0,0E0,0E0,0E0,0E0,0E0,0E0,0E0],"parents":[2147483647,0,0,1,1,2,2,3,3,4,4,7,7,8,8,9,9,11,11,12,12,13,13,14,14,15,15,16,16],"right_children":[2,4,6,8,10,-1,-1,12,14,16,-1,18,20,22,24,26,28,-1,-1,-1,-1,-1,-1,-1,-1,-1,-1,-1,-1],"split_conditions":[7.8525275E2,6.717983E2,8.531916E2,1.6716667E2,7.446115E2,3.701198E1,8.3225395E1,6E0,6.323163E2,6.9961255E2,2.1448923E1,2E0,1.1E1,5E0,1.24E2,1.87E2,2.56E2,-2.1373012E0,-4.4441543E0,-1.5656027E0,-2.840459E0,-1.0585552E0,2.0137804E0,-1.258875E0,4.5219355E0,4.3266416E0,1.0849979E1,1.1640313E1,7.092027E0],"split_indices":[7,7,7,5,7,0,0,0,7,7,0,0,0,1,4,4,4,0,0,0,0,0,0,0,0,0,0,0,0],"split_type":[0,0,0,0,0,0,0,0,0,0,0,0,0,0,0,0,0,0,0,0,0,0,0,0,0,0,0,0,0],"sum_hessian":[1.056E3,1.038E3,1.8E1,9.72E2,6.6E1,1.2E1,6E0,6.48E2,3.24E2,5E1,1.6E1,2.34E2,4.14E2,2.87E2,3.7E1,2.1E1,2.9E1,6.8E1,1.66E2,1.98E2,2.16E2,2.32E2,5.5E1,6E0,3.1E1,1.3E1,8E0,2.2E1,7E0],"tree_param":{"num_deleted":"0","num_feature":"9","num_nodes":"29","size_leaf_vector":"1"}},{"base_weights":[9.727611E-1,-7.3266697E0,5.77995E2,-1.6800463E1,1.22607506E2,3.5077404E1,7.875655E1,-2.73118E1,-2.7786813E0,8.58448E1,2.0604992E1,-3.715508E1,-2.1501617E1,-6.381653E0,3.142894E1,5.2367672E1,9.27327E1,-2.9113789E0,-3.9629056E0,-1.2120136E0,-2.655067E0,7.310158E-2,-1.9696503E0,-1.4357611E0,4.157632E0,1.5239098E0,5.455662E0,1.0570682E1,7.0282054E0],"categories":[],"categories_nodes":[],"categories_segments":[],"categories_sizes":[],"default_left":[0,0,0,0,0,0,0,0,0,0,0,0,0,0,0,0,0,0,0,0,0,0,0,0,0,0,0,0,0],"id":6,"left_children":[1,3,5,7,9,-1,-1,11,13,15,-1,17,19,21,23,25,27,-1,-1,-1,-1,-1,-1,-1,-1,-1,-1,-1,-1],"loss_changes":[5.066162E6,1.2859609E6,4.380245E5,1.4333231E5,2.0010912E5,0E0,0E0,3.0999469E4,5.1718688E4,6.9037188E3,0E0,2.9245E3,1.6351578E4,3.5907254E4,1.9181473E4,6.260547E1,4.5130938E3,0E0,0E0,0E0,0E0,0E0,0E0,0E0,0E0,0E0,0E0,0E0,0E0],"parents":[2147483647,0,0,1,1,2,2,3,3,4,4,7,7,8,8,9,9,11,11,12,12,13,13,14,14,15,15,16,16],"right_children":[2,4,6,8,10,-1,-1,12,14,16,-1,18,20,22,24,26,28,-1,-1,-1,-1,-1,-1,-1,-1,-1,-1,-1,-1],"split_conditions":[7.990157E2,6.717983E2,3.5416666E2,1.555E2,7.446115E2,3.5077404E1,7.875655E1,6E0,6.302177E2,1.7566667E2,2.0604992E1,2E0,9E0,1.93E2,1.24E2,6.806382E2,2E2,-2.9113789E0,-3.9629056E0,-1.2120136E0,-2.655067E0,7.310158E-2,-1.9696503E0,-1.4357611E0,4.157632E0,1.5239098E0,5.455662E0,1.0570682E1,7.0282054E0],"split_indices":[7,7,5,5,7,0,0,0,7,5,0,0,0,3,4,7,3,0,0,0,0,0,0,0,0,0,0,0,0],"split_type":[0,0,0,0,0,0,0,0,0,0,0,0,0,0,0,0,0,0,0,0,0,0,0,0,0,0,0,0,0],"sum_hessian":[1.056E3,1.042E3,1.4E1,9.72E2,7E1,8E0,6E0,5.55E2,4.17E2,5E1,2E1,2.04E2,3.51E2,3.78E2,3.9E1,1E1,4E1,5.1E1,1.53E2,1.24E2,2.27E2,2.47E2,1.31E2,7E0,3.2E1,1E0,9E0,2.3E1,1.7E1],"tree_param":{"num_deleted":"0","num_feature":"9","num_nodes":"29","size_leaf_vector":"1"}},{"base_weights":[1.0165448E0,-6.5601907E0,5.277844E2,-1.5130609E1,1.1098315E2,3.1959412E1,7.2006E1,-2.459994E1,-2.4988408E0,7.7742256E1,1.8642612E1,-3.3473106E1,-1.9362444E1,-5.748493E0,2.8354088E1,5.8260532E1,8.943744E1,-2.62584E0,-3.5691884E0,-3.3132272E0,-1.588806E0,5.5130877E-2,-1.7961686E0,-1.310132E0,3.7544668E0,3.2272115E0,9.221357E0,9.645838E0,5.8072586E0],"categories":[],"categories_nodes":[],"categories_segments":[],"categories_sizes":[],"default_left":[0,0,0,0,0,0,0,0,0,0,0,0,0,0,0,0,0,0,0,0,0,0,0,0,0,0,0,0,0],"id":7,"left_children":[1,3,5,7,9,-1,-1,11,13,15,-1,17,19,21,23,25,27,-1,-1,-1,-1,-1,-1,-1,-1,-1,-1,-1,-1],"loss_changes":[4.2221405E6,1.0523929E6,3.7032125E5,1.163233E5,1.6356E5,0E0,0E0,2.5190969E4,4.207221E4,6.4093125E3,0E0,2.3443906E3,1.6313859E4,2.9170426E4,1.5731855E4,1.6436562E4,1.00471875E3,0E0,0E0,0E0,0E0,0E0,0E0,0E0,0E0,0E0,0E0,0E0,0E0],"parents":[2147483647,0,0,1,1,2,2,3,3,4,4,7,7,8,8,9,9,11,11,12,12,13,13,14,14,15,15,16,16],"right_children":[2,4,6,8,10,-1,-1,12,14,16,-1,18,20,22,24,26,28,-1,-1,-1,-1,-1,-1,-1,-1,-1,-1,-1,-1],"split_conditions":[7.990157E2,6.717983E2,3.5416666E2,1.555E2,7.446115E2,3.1959412E1,7.2006E1,6E0,6.302177E2,6.9961255E2,1.8642612E1,2E0,1.18666664E2,1.99E2,1.24E2,1.87E2,2.56E2,-2.62584E0,-3.5691884E0,-3.3132272E0,-1.588806E0,5.5130877E-2,-1.7961686E0,-1.310132E0,3.7544668E0,3.2272115E0,9.221357E0,9.645838E0,5.8072586E0],"split_indices":[7,7,5,5,7,0,0,0,7,7,0,0,5,3,4,4,4,0,0,0,0,0,0,0,0,0,0,0,0],"split_type":[0,0,0,0,0,0,0,0,0,0,0,0,0,0,0,0,0,0,0,0,0,0,0,0,0,0,0,0,0],"sum_hessian":[1.056E3,1.042E3,1.4E1,9.72E2,7E1,8E0,6E0,5.55E2,4.17E2,5E1,2E1,2.04E2,3.51E2,3.78E2,3.9E1,2.1E1,2.9E1,5.1E1,1.53E2,6.9E1,2.82E2,2.5E2,1.28E2,7E0,3.2E1,1.3E1,8E0,2.2E1,7E0],"tree_param":{"num_deleted":"0","num_feature":"9","num_nodes":"29","size_leaf_vector":"1"}},{"base_weights":[1.0474505E0,-5.869511E0,4.8193704E2,-1.362823E1,1.0054038E2,2.9118576E1,6.583405E2,-2.0715818E1,5.670713E-1,6.531884E1,1.5898848E2,3.9242E1,8.820945E1,-2.61941E1,-1.392835E1,3.5955994E1,-2.2471712E0,5.9475178E1,1.118085E1,1.1229156E1,1.77105E1,-3.2131202E0,-2.200156E0,1.7885531E0,-1.535568E0,1.6082951E0,2.46518E1,-6.3108754E-1,2.6150954E0,6.686157E0,3.482186E0],"categories":[],"categories_nodes":[],"categories_segments":[],"categories_sizes":[],"default_left":[0,0,0,0,0,0,0,0,0,0,0,0,0,0,0,0,0,0,0,0,0,0,0,0,0,0,0,0,0,0,0],"id":8,"left_children":[1,3,5,7,9,-1,11,13,15,17,19,-1,-1,21,23,25,27,29,-1,-1,-1,-1,-1,-1,-1,-1,-1,-1,-1,-1,-1],"loss_changes":[3.5187222E6,8.6247556E5,3.1303825E5,9.790572E4,1.3577794E5,0E0,7.0354E4,2.3767344E4,3.244853E4,5.8469844E3,2.1083125E3,0E0,0E0,8.204219E3,1.3534039E4,9.6463445E4,3.5016312E4,5.5020312E3,0E0,0E0,0E0,0E0,0E0,0E0,0E0,0E0,0E0,0E0,0E0,0E0,0E0],"parents":[2147483647,0,0,1,1,2,2,3,3,4,4,6,6,7,7,8,8,9,9,10,10,13,13,14,14,15,15,16,16,17,17],"right_children":[2,4,6,8,10,-1,12,14,16,18,20,-1,-1,22,24,26,28,30,-1,-1,-1,-1,-1,-1,-1,-1,-1,-1,-1,-1,-1],"split_conditions":[7.990157E2,6.717983E2,3.5416666E2,1.6716667E2,7.3186365E2,2.9118576E1,2.6495834E2,1.3633333E2,1.5070833E2,4.41E2,7.579692E2,3.9242E1,8.820945E1,6E0,1.01E2,2.27E2,6.302177E2,2.59E2,1.118085E1,1.1229156E1,1.77105E1,-3.2131202E0,-2.200156E0,1.7885531E0,-1.535568E0,1.6082951E0,2.46518E1,-6.3108754E-1,2.6150954E0,6.686157E0,3.482186E0],"split_indices":[7,7,5,5,7,0,6,5,6,5,7,0,0,0,3,5,7,3,0,0,0,0,0,0,0,0,0,0,0,0,0],"split_type":[0,0,0,0,0,0,0,0,0,0,0,0,0,0,0,0,0,0,0,0,0,0,0,0,0,0,0,0,0,0,0],"sum_hessian":[1.056E3,1.042E3,1.4E1,9.72E2,7E1,8E0,6E0,6.48E2,3.24E2,4.5E1,2.5E1,4E0,2E0,3.57E2,2.91E2,2.3E1,3.01E2,4.2E1,3E0,9E0,1.6E1,1.45E2,2.12E2,1.2E1,2.79E2,2.2E1,1E0,2.64E2,3.7E1,3.1E1,1.1E1],"tree_param":{"num_deleted":"0","num_feature":"9","num_nodes":"31","size_leaf_vector":"1"}},{"base_weights":[1.1602467E0,-5.2122135E0,4.441813E2,-1.2034476E1,9.434843E1,2.6530258E1,6.107138E2,-1.6471207E1,7.5683355E0,6.1239864E1,1.442027E2,3.6102642E1,8.232882E1,-2.3472357E1,-1.0471455E1,1.5132379E2,5.116745E0,7.107666E1,4.0812782E1,1.0218531E1,1.604363E1,-2.8920915E0,-1.9615679E0,-2.561402E0,-6.5118045E-1,-7.206413E-1,2.341921E1,5.8047504E0,6.2188108E-2,4.0387435E0,8.187278E0,1.765376E0,6.1765084E0],"categories":[],"categories_nodes":[],"categories_segments":[],"categories_sizes":[],"default_left":[0,0,0,0,0,0,0,0,0,0,0,0,0,0,0,0,0,0,0,0,0,0,0,0,0,0,0,0,0,0,0,0,0],"id":9,"left_children":[1,3,5,7,9,-1,11,13,15,17,19,-1,-1,21,23,25,27,29,31,-1,-1,-1,-1,-1,-1,-1,-1,-1,-1,-1,-1,-1,-1],"loss_changes":[2.986368E6,7.0957106E5,2.8481275E5,8.509669E4,1.017595E5,0E0,7.4311E4,3.323233E4,6.3015453E4,5.5385156E3,1.3401875E3,0E0,0E0,7.1445938E3,2.5675648E4,4.109908E4,4.255097E4,5.639125E3,6.673373E3,0E0,0E0,0E0,0E0,0E0,0E0,0E0,0E0,0E0,0E0,0E0,0E0,0E0,0E0],"parents":[2147483647,0,0,1,1,2,2,3,3,4,4,6,6,7,7,8,8,9,9,10,10,13,13,14,14,15,15,16,16,17,17,18,18],"right_children":[2,4,6,8,10,-1,12,14,16,18,20,-1,-1,22,24,26,28,30,32,-1,-1,-1,-1,-1,-1,-1,-1,-1,-1,-1,-1,-1,-1],"split_conditions":[7.990157E2,6.806382E2,3.5416666E2,2.0616667E2,7.3186365E2,2.6530258E1,2.6495834E2,1.37E2,1.5070833E2,2E2,7.579692E2,3.6102642E1,8.232882E1,6E0,3.1050064E2,1.7E1,1.2E1,1.685E2,1.87E2,1.0218531E1,1.604363E1,-2.8920915E0,-1.9615679E0,-2.561402E0,-6.5118045E-1,-7.206413E-1,2.341921E1,5.8047504E0,6.2188108E-2,4.0387435E0,8.187278E0,1.765376E0,6.1765084E0],"split_indices":[7,7,5,5,7,0,6,5,6,3,7,0,0,0,7,0,0,5,4,0,0,0,0,0,0,0,0,0,0,0,0,0,0],"split_type":[0,0,0,0,0,0,0,0,0,0,0,0,0,0,0,0,0,0,0,0,0,0,0,0,0,0,0,0,0,0,0,0,0],"sum_hessian":[1.056E3,1.042E3,1.4E1,9.76E2,6.6E1,8E0,6E0,7.96E2,1.8E2,4.1E1,2.5E1,4E0,2E0,3.66E2,4.3E2,2E0,1.78E2,2.6E1,1.5E1,9E0,1.6E1,1.49E2,2.17E2,8.8E1,3.42E2,1E0,1E0,1.3E1,1.65E2,8E0,1.8E1,8E0,7E0],"tree_param":{"num_deleted":"0","num_feature":"9","num_nodes":"33","size_leaf_vector":"1"}},{"base_weights":[1.244685E0,-4.626824E0,4.0942728E2,-1.1607079E1,7.62485E1,2.9079034E2,6.629813E2,-1.8273754E1,-2.5263293E0,5.0483105E1,1.307925E2,7.0125885E0,3.0447565E2,1.7335928E1,7.684023E1,-2.507107E1,-1.4240259E1,-2.7157814E1,7.679031E-2,4.39573E1,9.174864E1,9.298862E0,1.453364E2,3.1999805E1,7.462589E0,-1.9427575E0,-2.6813867E0,4.0216637E-1,-1.674358E0,4.7372413E0,-3.246681E0,1.4792302E1,-1.534822E-1,4.875417E0,-9.444123E-2,1.1981953E1,1.4380946E0,1.4908757E1,4.265883E0],"categories":[],"categories_nodes":[],"categories_segments":[],"categories_sizes":[],"default_left":[0,0,0,0,0,0,0,0,0,0,0,0,0,0,0,0,0,0,0,0,0,0,0,0,0,0,0,0,0,0,0,0,0,0,0,0,0,0,0],"id":10,"left_children":[1,3,5,7,9,11,13,15,17,19,21,-1,23,-1,-1,25,27,29,31,33,35,-1,37,-1,-1,-1,-1,-1,-1,-1,-1,-1,-1,-1,-1,-1,-1,-1,-1],"loss_changes":[2.535151E6,5.896902E5,2.5842475E5,5.813125E4,1.1004097E5,1.488675E4,7.3256E4,1.4831984E4,2.6162514E4,1.1585859E4,7.805625E2,0E0,1.53658125E4,0E0,0E0,1.4953359E3,1.6067734E4,1.696958E4,8.8387234E4,1.1246211E4,1.347934E4,0E0,1.87875E2,0E0,0E0,0E0,0E0,0E0,0E0,0E0,0E0,0E0,0E0,0E0,0E0,0E0,0E0,0E0,0E0],"parents":[2147483647,0,0,1,1,2,2,3,3,4,4,5,5,6,6,7,7,8,8,9,9,10,10,12,12,15,15,16,16,17,17,18,18,19,19,20,20,22,22],"right_children":[2,4,6,8,10,12,14,16,18,20,22,-1,24,-1,-1,26,28,30,32,34,36,-1,38,-1,-1,-1,-1,-1,-1,-1,-1,-1,-1,-1,-1,-1,-1,-1,-1],"split_conditions":[7.990157E2,6.574289E2,2.6495834E2,1.555E2,7.3186365E2,1.7741667E2,1.1E2,6E0,2.722267E2,3.625E2,7.579692E2,7.0125885E0,3E2,1.7335928E1,7.684023E1,2E0,7E0,1E0,2.758684E2,3.74E2,2.8175E2,9.298862E0,2.4929167E2,3.1999805E1,7.462589E0,-1.9427575E0,-2.6813867E0,4.0216637E-1,-1.674358E0,4.7372413E0,-3.246681E0,1.4792302E1,-1.534822E-1,4.875417E0,-9.444123E-2,1.1981953E1,1.4380946E0,1.4908757E1,4.265883E0],"split_indices":[7,7,6,5,7,6,4,0,7,5,7,0,3,0,0,0,0,1,7,3,6,0,6,0,0,0,0,0,0,0,0,0,0,0,0,0,0,0,0],"split_type":[0,0,0,0,0,0,0,0,0,0,0,0,0,0,0,0,0,0,0,0,0,0,0,0,0,0,0,0,0,0,0,0,0,0,0,0,0,0,0],"sum_hessian":[1.056E3,1.042E3,1.4E1,9.6E2,8.2E1,1.1E1,3E0,5.53E2,4.07E2,5.7E1,2.5E1,1E0,1E1,1E0,2E0,2.04E2,3.49E2,3.8E1,3.69E2,5.1E1,6E0,9E0,1.6E1,9E0,1E0,5.1E1,1.53E2,4.2E1,3.07E2,2E0,3.6E1,3E0,3.66E2,4.6E1,5E0,4E0,2E0,1.5E1,1E0],"tree_param":{"num_deleted":"0","num_feature":"9","num_nodes":"39","size_leaf_vector":"1"}},{"base_weights":[1.3071244E0,-3.3302357E0,4.4258066E2,-9.731297E0,8.479887E1,2.9843481E1,6.2022723E2,-1.1967675E1,1.8974709E1,5.4681725E1,1.3802715E2,1.6469131E1,7.171755E1,-1.7445263E1,-4.3939085E0,1.2473121E1,6.861558E1,4.0820892E1,6.7370384E1,1.556655E1,1.0142693E1,-2.333962E0,-1.4205785E0,1.367847E-1,-1.7783097E0,6.850979E-1,4.2147593E0,-1.2056524E0,9.75157E0,9.551625E-1,5.497398E0,5.2479506E0,9.39096E0],"categories":[],"categories_nodes":[],"categories_segments":[],"categories_sizes":[],"default_left":[0,0,0,0,0,0,0,0,0,0,0,0,0,0,0,0,0,0,0,0,0,0,0,0,0,0,0,0,0,0,0,0,0],"id":11,"left_children":[1,3,5,7,9,-1,11,13,15,17,19,-1,-1,21,23,25,27,29,31,-1,-1,-1,-1,-1,-1,-1,-1,-1,-1,-1,-1,-1,-1],"loss_changes":[2.16446E6,5.9145856E5,9.657975E4,6.2948023E4,1.06271375E5,0E0,5.8541E4,3.7551133E4,2.2059006E4,5.5160156E3,3.5046875E2,0E0,0E0,9.712203E3,2.94938E4,1.0388627E4,1.9827164E4,1.053882E4,4.1610938E3,0E0,0E0,0E0,0E0,0E0,0E0,0E0,0E0,0E0,0E0,0E0,0E0,0E0,0E0],"parents":[2147483647,0,0,1,1,2,2,3,3,4,4,6,6,7,7,8,8,9,9,10,10,13,13,14,14,15,15,16,16,17,17,18,18],"right_children":[2,4,6,8,10,-1,12,14,16,18,20,-1,-1,22,24,26,28,30,32,-1,-1,-1,-1,-1,-1,-1,-1,-1,-1,-1,-1,-1,-1],"split_conditions":[8.129575E2,6.806382E2,2.6495834E2,6.2058826E2,7.446115E2,2.9843481E1,1.1E2,1.535E2,4.39E2,1.52E2,2.9033334E2,1.6469131E1,7.171755E1,1.23666664E2,2.18E2,4E0,1.24E2,6.9600696E2,1.6E1,1.556655E1,1.0142693E1,-2.333962E0,-1.4205785E0,1.367847E-1,-1.7783097E0,6.850979E-1,4.2147593E0,-1.2056524E0,9.75157E0,9.551625E-1,5.497398E0,5.2479506E0,9.39096E0],"split_indices":[7,7,6,7,7,0,4,5,3,4,5,0,0,5,3,1,4,7,0,0,0,0,0,0,0,0,0,0,0,0,0,0,0],"split_type":[0,0,0,0,0,0,0,0,0,0,0,0,0,0,0,0,0,0,0,0,0,0,0,0,0,0,0,0,0,0,0,0,0],"sum_hessian":[1.056E3,1.046E3,1E1,9.76E2,7E1,7E0,3E0,9.06E2,7E1,4.6E1,2.4E1,1E0,2E0,5.25E2,3.81E2,6.3E1,7E0,2.4E1,2.2E1,1.4E1,1E1,1.84E2,3.41E2,2.67E2,1.14E2,5.4E1,9E0,2E0,5E0,8E0,1.6E1,1.6E1,6E0],"tree_param":{"num_deleted":"0","num_feature":"9","num_nodes":"33","size_leaf_vector":"1"}},{"base_weights":[1.3399705E0,-3.673388E0,3.4984616E2,-9.406533E0,6.2751022E1,2.4389064E2,5.802512E2,-1.242954E1,4.5328956E0,4.1687748E1,1.0732483E2,6.1548247E0,2.5487193E2,1.5645676E1,6.693638E1,-1.9911154E1,-8.763811E0,1.4358597E2,2.0523536E0,3.5718277E1,8.0076996E1,7.6414576E0,1.1919411E1,2.6719446E1,6.5823245E0,-6.996543E-1,-2.5961816E0,1.240366E0,-1.0697771E0,-7.1119004E-1,2.2249084E1,5.0985255E0,-2.3241618E-1,3.9861176E0,-2.6874647E-1,1.0606967E1,1.0063533E0],"categories":[],"categories_nodes":[],"categories_segments":[],"categories_sizes":[],"default_left":[0,0,0,0,0,0,0,0,0,0,0,0,0,0,0,0,0,0,0,0,0,0,0,0,0,0,0,0,0,0,0,0,0,0,0,0,0],"id":12,"left_children":[1,3,5,7,9,11,13,15,17,19,21,-1,23,-1,-1,25,27,29,31,33,35,-1,-1,-1,-1,-1,-1,-1,-1,-1,-1,-1,-1,-1,-1,-1,-1],"loss_changes":[1.8480612E6,3.9778638E5,2.246725E5,4.0551914E4,7.345209E4,8.3413125E3,4.6335125E4,2.1491703E4,5.9032742E4,1.0431281E4,4.308125E2,0E0,8.0375625E3,0E0,0E0,2.005711E4,2.1911195E4,3.7254723E4,3.652495E4,8.380898E3,1.167143E4,0E0,0E0,0E0,0E0,0E0,0E0,0E0,0E0,0E0,0E0,0E0,0E0,0E0,0E0,0E0,0E0],"parents":[2147483647,0,0,1,1,2,2,3,3,4,4,5,5,6,6,7,7,8,8,9,9,10,10,12,12,15,15,16,16,17,17,18,18,19,19,20,20],"right_children":[2,4,6,8,10,12,14,16,18,20,22,-1,24,-1,-1,26,28,30,32,34,36,-1,-1,-1,-1,-1,-1,-1,-1,-1,-1,-1,-1,-1,-1,-1,-1],"split_conditions":[7.990157E2,6.574289E2,2.6495834E2,2.0616667E2,7.3186365E2,1.7741667E2,1.1E2,6E0,1.5070833E2,3.625E2,7.579692E2,6.1548247E0,3E2,1.5645676E1,6.693638E1,2E0,7E0,1.7E1,1.2E1,3.74E2,2.8175E2,7.6414576E0,1.1919411E1,2.6719446E1,6.5823245E0,-6.996543E-1,-2.5961816E0,1.240366E0,-1.0697771E0,-7.1119004E-1,2.2249084E1,5.0985255E0,-2.3241618E-1,3.9861176E0,-2.6874647E-1,1.0606967E1,1.0063533E0],"split_indices":[7,7,6,5,7,6,4,0,6,5,7,0,3,0,0,0,0,0,0,3,6,0,0,0,0,0,0,0,0,0,0,0,0,0,0,0,0],"split_type":[0,0,0,0,0,0,0,0,0,0,0,0,0,0,0,0,0,0,0,0,0,0,0,0,0,0,0,0,0,0,0,0,0,0,0,0,0],"sum_hessian":[1.056E3,1.042E3,1.4E1,9.6E2,8.2E1,1.1E1,3E0,7.89E2,1.71E2,5.7E1,2.5E1,1E0,1E1,1E0,2E0,2.58E2,5.31E2,2E0,1.69E2,5.1E1,6E0,9E0,1.6E1,9E0,1E0,8.3E1,1.75E2,4.4E1,4.87E2,1E0,1E0,1.3E1,1.56E2,4.6E1,5E0,4E0,2E0],"tree_param":{"num_deleted":"0","num_feature":"9","num_nodes":"37","size_leaf_vector":"1"}},{"base_weights":[1.3764663E0,-2.586532E0,3.7845673E2,-7.861145E0,7.003155E1,2.4894222E1,5.428716E2,-9.789791E0,1.6887354E1,4.8131622E1,1.1988224E2,1.4863391E1,6.247395E1,-1.4271105E1,-3.1873484E0,1.0938933E1,6.23638E1,3.3818516E1,6.059351E1,1.2292686E1,2.9494843E0,-1.9636215E0,-1.1373338E0,-3.0553183E-2,-2.6810606E0,6.1471516E-1,3.6199841E0,-1.1085694E0,8.869458E0,5.632136E-1,4.60329E0,4.621051E0,8.717895E0],"categories":[],"categories_nodes":[],"categories_segments":[],"categories_sizes":[],"default_left":[0,0,0,0,0,0,0,0,0,0,0,0,0,0,0,0,0,0,0,0,0,0,0,0,0,0,0,0,0,0,0,0,0],"id":13,"left_children":[1,3,5,7,9,-1,11,13,15,17,19,-1,-1,21,23,25,27,29,31,-1,-1,-1,-1,-1,-1,-1,-1,-1,-1,-1,-1,-1,-1],"loss_changes":[1.5805265E6,4.0158528E5,9.90915E4,4.6798617E4,7.174244E4,0E0,3.624425E4,2.6790477E4,1.8524234E4,7.0476016E3,2.1534688E3,0E0,0E0,8.1719688E3,2.504447E4,7.524339E3,1.6455104E4,8.691996E3,5.91325E3,0E0,0E0,0E0,0E0,0E0,0E0,0E0,0E0,0E0,0E0,0E0,0E0,0E0,0E0],"parents":[2147483647,0,0,1,1,2,2,3,3,4,4,6,6,7,7,8,8,9,9,10,10,13,13,14,14,15,15,16,16,17,17,18,18],"right_children":[2,4,6,8,10,-1,12,14,16,18,20,-1,-1,22,24,26,28,30,32,-1,-1,-1,-1,-1,-1,-1,-1,-1,-1,-1,-1,-1,-1],"split_conditions":[8.129575E2,6.806382E2,2.6495834E2,6.2058826E2,7.579692E2,2.4894222E1,1.1E2,1.555E2,4.39E2,1.52E2,2.4929167E2,1.4863391E1,6.247395E1,1.23833336E2,3.71E2,4E0,1.24E2,6.9600696E2,1.6E1,1.2292686E1,2.9494843E0,-1.9636215E0,-1.1373338E0,-3.0553183E-2,-2.6810606E0,6.1471516E-1,3.6199841E0,-1.1085694E0,8.869458E0,5.632136E-1,4.60329E0,4.621051E0,8.717895E0],"split_indices":[7,7,6,7,7,0,4,5,3,4,6,0,0,5,3,1,4,7,0,0,0,0,0,0,0,0,0,0,0,0,0,0,0],"split_type":[0,0,0,0,0,0,0,0,0,0,0,0,0,0,0,0,0,0,0,0,0,0,0,0,0,0,0,0,0,0,0,0,0],"sum_hessian":[1.056E3,1.046E3,1E1,9.76E2,7E1,7E0,3E0,9.06E2,7E1,5E1,2E1,1E0,2E0,5.39E2,3.67E2,6.3E1,7E0,2.5E1,2.5E1,1.9E1,1E0,1.87E2,3.52E2,3.28E2,3.9E1,5.4E1,9E0,2E0,5E0,8E0,1.7E1,1.8E1,7E0],"tree_param":{"num_deleted":"0","num_feature":"9","num_nodes":"33","size_leaf_vector":"1"}},{"base_weights":[1.373313E0,-2.2897434E0,3.4990485E2,-7.0687046E0,6.3503704E1,2.2715979E1,5.0791873E2,-1.0142321E1,6.504447E0,4.0935513E1,1.03391754E2,1.4120221E1,5.8309017E1,-1.6752357E1,-6.9472513E0,1.3621194E2,4.2942405E0,4.8403255E1,2.621508E1,7.7224975E0,1.2160533E1,-5.485011E-1,-2.2034771E0,-1.0201686E-1,-1.3950037E0,-7.06366E-1,2.1138159E1,-1.361642E0,1.4875833E0,2.2880118E0,5.664439E0,1.4446926E0,6.3791885E0],"categories":[],"categories_nodes":[],"categories_segments":[],"categories_sizes":[],"default_left":[0,0,0,0,0,0,0,0,0,0,0,0,0,0,0,0,0,0,0,0,0,0,0,0,0,0,0,0,0,0,0,0,0],"id":14,"left_children":[1,3,5,7,9,-1,11,13,15,17,19,-1,-1,21,23,25,27,29,31,-1,-1,-1,-1,-1,-1,-1,-1,-1,-1,-1,-1,-1,-1],"loss_changes":[1.3502632E6,3.2965116E5,9.7970875E4,4.0825094E4,5.9681875E4,0E0,2.7932875E4,1.6715883E4,5.130421E4,3.8977422E3,2.5237812E3,0E0,0E0,1.5294508E4,2.2357553E4,3.380305E4,3.4127227E4,5.014164E3,7.038176E3,0E0,0E0,0E0,0E0,0E0,0E0,0E0,0E0,0E0,0E0,0E0,0E0,0E0,0E0],"parents":[2147483647,0,0,1,1,2,2,3,3,4,4,6,6,7,7,8,8,9,9,10,10,13,13,14,14,15,15,16,16,17,17,18,18],"right_children":[2,4,6,8,10,-1,12,14,16,18,20,-1,-1,22,24,26,28,30,32,-1,-1,-1,-1,-1,-1,-1,-1,-1,-1,-1,-1,-1,-1],"split_conditions":[8.129575E2,6.806382E2,2.6495834E2,2.0616667E2,7.446115E2,2.2715979E1,1.1E2,6E0,1.5070833E2,2E2,7.7303796E2,1.4120221E1,5.8309017E1,2E0,1.4E1,1.7E1,2E0,1.685E2,5.91E2,7.7224975E0,1.2160533E1,-5.485011E-1,-2.2034771E0,-1.0201686E-1,-1.3950037E0,-7.06366E-1,2.1138159E1,-1.361642E0,1.4875833E0,2.2880118E0,5.664439E0,1.4446926E0,6.3791885E0],"split_indices":[7,7,6,5,7,0,4,0,6,3,7,0,0,0,0,0,1,5,3,0,0,0,0,0,0,0,0,0,0,0,0,0,0],"split_type":[0,0,0,0,0,0,0,0,0,0,0,0,0,0,0,0,0,0,0,0,0,0,0,0,0,0,0,0,0,0,0,0,0],"sum_hessian":[1.056E3,1.046E3,1E1,9.76E2,7E1,7E0,3E0,7.96E2,1.8E2,4.6E1,2.4E1,1E0,2E0,2.58E2,5.38E2,2E0,1.78E2,2.9E1,1.7E1,1.2E1,1.2E1,8.3E1,1.75E2,2.92E2,2.46E2,1E0,1E0,6.6E1,1.12E2,8E0,2.1E1,1.4E1,3E0],"tree_param":{"num_deleted":"0","num_feature":"9","num_nodes":"33","size_leaf_vector":"1"}},{"base_weights":[1.3751643E0,-2.0111315E0,3.2356393E2,-6.8686357E0,5.1667862E1,5.8041317E1,2.398377E1,-1.3627224E1,-2.6883488E0,3.1669146E1,8.860979E1,-1.2463106E1,-2.782489E1,-1.4051474E1,6.334034E-2,2.6305391E1,6.699002E1,6.796393E1,1.1038023E1,-1.7980067E0,-9.3470496E-1,-2.904983E0,2.0117722E-1,1.6145287E-1,-3.0865307E0,8.208485E0,-1.3240495E-1,3.249453E0,7.185261E-1,9.003359E0,6.2540793E-1,9.0028105E0,5.2552466E0],"categories":[],"categories_nodes":[],"categories_segments":[],"categories_sizes":[],"default_left":[0,0,0,0,0,0,0,0,0,0,0,0,0,0,0,0,0,0,0,0,0,0,0,0,0,0,0,0,0,0,0,0,0],"id":15,"left_children":[1,3,5,7,9,-1,-1,11,13,15,17,19,21,23,25,27,29,31,-1,-1,-1,-1,-1,-1,-1,-1,-1,-1,-1,-1,-1,-1,-1],"loss_changes":[1.1538658E6,2.7335588E5,9.7350125E4,2.711434E4,6.1468656E4,0E0,0E0,5.7188984E3,1.8605225E4,9.226047E3,5.9822188E3,5.694129E3,1.0452402E3,3.0604877E4,5.473067E4,5.920047E3,9.233926E3,1.3895312E3,0E0,0E0,0E0,0E0,0E0,0E0,0E0,0E0,0E0,0E0,0E0,0E0,0E0,0E0,0E0],"parents":[2147483647,0,0,1,1,2,2,3,3,4,4,7,7,8,8,9,9,10,10,11,11,12,12,13,13,14,14,15,15,16,16,17,17],"right_children":[2,4,6,8,10,-1,-1,12,14,16,18,20,22,24,26,28,30,32,-1,-1,-1,-1,-1,-1,-1,-1,-1,-1,-1,-1,-1,-1,-1],"split_conditions":[8.129575E2,6.574289E2,1.03E2,1.37E2,7.3186365E2,5.8041317E1,2.398377E1,1.7E2,6E0,3.625E2,7.7303796E2,1.18666664E2,3.07E2,2E0,7E0,2.59E2,2.8175E2,1.7554167E2,1.1038023E1,-1.7980067E0,-9.3470496E-1,-2.904983E0,2.0117722E-1,1.6145287E-1,-3.0865307E0,8.208485E0,-1.3240495E-1,3.249453E0,7.185261E-1,9.003359E0,6.2540793E-1,9.0028105E0,5.2552466E0],"split_indices":[7,7,3,5,7,0,0,3,0,5,7,5,4,0,0,3,6,6,0,0,0,0,0,0,0,0,0,0,0,0,0,0,0],"split_type":[0,0,0,0,0,0,0,0,0,0,0,0,0,0,0,0,0,0,0,0,0,0,0,0,0,0,0,0,0,0,0,0,0],"sum_hessian":[1.056E3,1.046E3,1E1,9.6E2,8.6E1,1E0,9E0,3.66E2,5.94E2,5.7E1,2.9E1,3.4E2,2.6E1,1.15E2,4.79E2,5.1E1,6E0,1.7E1,1.2E1,1.21E2,2.19E2,2.5E1,1E0,6E1,5.5E1,7E0,4.72E2,3.8E1,1.3E1,4E0,2E0,5E0,1.2E1],"tree_param":{"num_deleted":"0","num_feature":"9","num_nodes":"33","size_leaf_vector":"1"}},{"base_weights":[1.3517735E0,-1.7731457E0,2.9866437E2,-6.1820707E0,4.694812E1,5.513925E1,2.1825232E1,-8.951579E0,2.1752913E0,3.0873823E1,8.557742E1,-7.4093957E0,-2.6155949E1,4.4151447E1,-3.38318E-2,2.6019777E1,6.0992928E1,9.889103E0,5.964274E1,-1.1990856E0,-1.9445394E-1,-2.818404E0,1.3842285E-1,1.1641815E0,2.0087872E1,-2.735555E-1,3.3819158E0,3.154307E0,8.8199073E-1,7.8405337E0,5.837143E-1,3.321062E0,7.0002437E0],"categories":[],"categories_nodes":[],"categories_segments":[],"categories_sizes":[],"default_left":[0,0,0,0,0,0,0,0,0,0,0,0,0,0,0,0,0,0,0,0,0,0,0,0,0,0,0,0,0,0,0,0,0],"id":16,"left_children":[1,3,5,7,9,-1,-1,11,13,15,17,19,21,23,25,27,29,-1,31,-1,-1,-1,-1,-1,-1,-1,-1,-1,-1,-1,-1,-1,-1],"loss_changes":[9.825648E5,2.2519466E5,1.0320369E5,2.2262566E4,5.1379562E4,0E0,0E0,1.8962512E4,2.225681E4,7.623551E3,2.7339844E3,1.660127E4,3.3343945E3,5.8803156E4,2.1037174E4,5.041785E3,7.225494E3,0E0,6.8729297E2,0E0,0E0,0E0,0E0,0E0,0E0,0E0,0E0,0E0,0E0,0E0,0E0,0E0,0E0],"parents":[2147483647,0,0,1,1,2,2,3,3,4,4,7,7,8,8,9,9,10,10,11,11,12,12,13,13,14,14,15,15,16,16,18,18],"right_children":[2,4,6,8,10,-1,-1,12,14,16,18,20,22,24,26,28,30,-1,32,-1,-1,-1,-1,-1,-1,-1,-1,-1,-1,-1,-1,-1,-1],"split_conditions":[8.129575E2,6.574289E2,1.03E2,1.85E2,7.446115E2,5.513925E1,2.1825232E1,2.18E2,1.5070833E2,3.625E2,2.9033334E2,1.37E2,6.123117E2,4E0,2.585E2,2.59E2,2.8175E2,9.889103E0,7.660798E2,-1.1990856E0,-1.9445394E-1,-2.818404E0,1.3842285E-1,1.1641815E0,2.0087872E1,-2.735555E-1,3.3819158E0,3.154307E0,8.8199073E-1,7.8405337E0,5.837143E-1,3.321062E0,7.0002437E0],"split_indices":[7,7,3,5,7,0,0,3,6,5,5,5,7,1,6,3,6,0,7,0,0,0,0,0,0,0,0,0,0,0,0,0,0],"split_type":[0,0,0,0,0,0,0,0,0,0,0,0,0,0,0,0,0,0,0,0,0,0,0,0,0,0,0,0,0,0,0,0,0],"sum_hessian":[1.056E3,1.046E3,1E1,9.6E2,8.6E1,1E0,9E0,7.21E2,2.39E2,6.2E1,2.4E1,6.63E2,5.8E1,1.1E1,2.28E2,5.5E1,7E0,1.4E1,1E1,3.6E2,3.03E2,5.4E1,4E0,1E1,1E0,2.12E2,1.6E1,4.1E1,1.4E1,5E0,2E0,4E0,6E0],"tree_param":{"num_deleted":"0","num_feature":"9","num_nodes":"33","size_leaf_vector":"1"}},{"base_weights":[1.3395139E0,-2.0365005E0,2.3599574E2,-6.290723E0,3.201483E1,1.5364981E2,4.2403458E2,-1.2952243E1,-3.62266E0,2.0992712E1,6.2911827E1,3.7225099E0,1.6084978E2,1.1123761E1,4.9122105E1,-4.0388765E0,-1.736093E1,1.2054775E0,-9.666009E0,1.6029678E1,5.3825516E1,6.418442E1,1.3003327E0,1.686775E1,4.128635E0,1.2615823E0,-1.2721194E0,-1.40266E0,-5.2436576E0,-4.8807237E-1,1.3925736E0,-1.8379096E0,-3.6703488E-1,1.2042831E0,3.662153E0,1.8771651E0,7.990846E0,6.730105E0,3.5764382E0],"categories":[],"categories_nodes":[],"categories_segments":[],"categories_sizes":[],"default_left":[0,0,0,0,0,0,0,0,0,0,0,0,0,0,0,0,0,0,0,0,0,0,0,0,0,0,0,0,0,0,0,0,0,0,0,0,0,0,0],"id":17,"left_children":[1,3,5,7,9,11,13,15,17,19,21,-1,23,-1,-1,25,27,29,31,33,35,37,-1,-1,-1,-1,-1,-1,-1,-1,-1,-1,-1,-1,-1,-1,-1,-1,-1],"loss_changes":[8.37839E5,1.5129239E5,1.6711062E5,1.644675E4,3.818315E4,4.0714062E3,2.9420625E4,1.0343387E4,1.9385926E4,1.3313871E4,1.0707891E3,0E0,3.330875E3,0E0,0E0,1.3030012E4,1.9965309E4,2.8712645E4,1.5343551E4,5.8804062E3,8.557377E3,1.616875E2,0E0,0E0,0E0,0E0,0E0,0E0,0E0,0E0,0E0,0E0,0E0,0E0,0E0,0E0,0E0,0E0,0E0],"parents":[2147483647,0,0,1,1,2,2,3,3,4,4,5,5,6,6,7,7,8,8,9,9,10,10,12,12,15,15,16,16,17,17,18,18,19,19,20,20,21,21],"right_children":[2,4,6,8,10,12,14,16,18,20,22,-1,24,-1,-1,26,28,30,32,34,36,38,-1,-1,-1,-1,-1,-1,-1,-1,-1,-1,-1,-1,-1,-1,-1,-1,-1],"split_conditions":[7.990157E2,6.323163E2,2.6495834E2,6E0,7.280172E2,1.7741667E2,1.1E2,2E0,1.47E2,3.4133334E2,1.9E1,3.7225099E0,3E2,1.1123761E1,4.9122105E1,1.21E2,1.6E2,1.5833333E2,1.65375E2,3.64E2,2E0,5.51E2,1.3003327E0,1.686775E1,4.128635E0,1.2615823E0,-1.2721194E0,-1.40266E0,-5.2436576E0,-4.8807237E-1,1.3925736E0,-1.8379096E0,-3.6703488E-1,1.2042831E0,3.662153E0,1.8771651E0,7.990846E0,6.730105E0,3.5764382E0],"split_indices":[7,7,6,0,7,6,4,0,3,5,0,0,3,0,0,4,5,5,6,4,1,3,0,0,0,0,0,0,0,0,0,0,0,0,0,0,0,0,0],"split_type":[0,0,0,0,0,0,0,0,0,0,0,0,0,0,0,0,0,0,0,0,0,0,0,0,0,0,0,0,0,0,0,0,0,0,0,0,0,0,0],"sum_hessian":[1.056E3,1.042E3,1.4E1,9.27E2,1.15E2,1.1E1,3E0,2.64E2,6.63E2,8.6E1,2.9E1,1E0,1E1,1E0,2E0,8.8E1,1.76E2,3.69E2,2.94E2,7.6E1,1E1,2.8E1,1E0,9E0,1E0,3E1,5.8E1,1.62E2,1.4E1,2.5E2,1.19E2,1.19E2,1.75E2,6.5E1,1.1E1,5E0,5E0,2.4E1,4E0],"tree_param":{"num_deleted":"0","num_feature":"9","num_nodes":"39","size_leaf_vector":"1"}},{"base_weights":[1.3033357E0,-1.3645403E0,2.5511815E2,-4.2172837E0,5.117234E1,4.9926186E1,1.8077759E2,-6.0325656E0,1.454042E1,3.6967697E1,7.991376E0,7.3268027E0,1.9849648E1,-5.1827173E0,-2.3856615E1,9.509656E0,5.2829414E1,4.1364437E1,1.8204367E1,-7.154937E-1,1.054681E0,-3.1252935E0,2.4497406E0,1.6435937E0,-3.6930683E-1,-1.2370843E0,8.253964E0,2.8874068E0,5.3576713E0,-3.3543703E-1,2.4843202E0],"categories":[],"categories_nodes":[],"categories_segments":[],"categories_sizes":[],"default_left":[0,0,0,0,0,0,0,0,0,0,0,0,0,0,0,0,0,0,0,0,0,0,0,0,0,0,0,0,0,0,0],"id":18,"left_children":[1,3,5,7,9,-1,11,13,15,17,-1,-1,-1,19,21,23,25,27,29,-1,-1,-1,-1,-1,-1,-1,-1,-1,-1,-1,-1],"loss_changes":[7.1609194E5,1.5713414E5,1.0939219E5,3.393393E4,1.909189E4,0E0,4.5060625E3,1.3615359E4,1.6448424E4,2.3818906E3,0E0,0E0,0E0,2.6971604E4,1.5428934E4,7.284915E3,2.0392234E4,3.0291016E3,1.3714573E3,0E0,0E0,0E0,0E0,0E0,0E0,0E0,0E0,0E0,0E0,0E0,0E0],"parents":[2147483647,0,0,1,1,2,2,3,3,4,4,6,6,7,7,8,8,9,9,13,13,14,14,15,15,16,16,17,17,18,18],"right_children":[2,4,6,8,10,-1,12,14,16,18,-1,-1,-1,20,22,24,26,28,30,-1,-1,-1,-1,-1,-1,-1,-1,-1,-1,-1,-1],"split_conditions":[8.129575E2,6.9961255E2,1.03E2,6.2058826E2,7.660798E2,4.9926186E1,2.975E2,3.71E2,4.39E2,2.61E2,7.991376E0,7.3268027E0,1.9849648E1,2.18E2,5E0,1.94E2,1.24E2,1.51E2,1.685E2,-7.154937E-1,1.054681E0,-3.1252935E0,2.4497406E0,1.6435937E0,-3.6930683E-1,-1.2370843E0,8.253964E0,2.8874068E0,5.3576713E0,-3.3543703E-1,2.4843202E0],"split_indices":[7,7,3,7,7,0,5,3,3,4,0,0,0,5,1,3,4,4,5,0,0,0,0,0,0,0,0,0,0,0,0],"split_type":[0,0,0,0,0,0,0,0,0,0,0,0,0,0,0,0,0,0,0,0,0,0,0,0,0,0,0,0,0,0,0],"sum_hessian":[1.056E3,1.046E3,1E1,9.93E2,5.3E1,1E0,9E0,9.06E2,8.7E1,3.7E1,1.6E1,2E0,7E0,8.66E2,4E1,7.8E1,9E0,2.9E1,8E0,7.7E2,9.6E1,3.5E1,5E0,5.1E1,2.7E1,3E0,6E0,1.6E1,1.3E1,2E0,6E0],"tree_param":{"num_deleted":"0","num_feature":"9","num_nodes":"31","size_leaf_vector":"1"}},{"base_weights":[1.270869E0,-1.2029264E0,2.3661568E2,-4.194932E0,3.99857E1,4.742988E1,1.654175E2,-5.429677E0,1.1637582E1,2.7606236E1,6.814603E1,6.838351E0,1.8112805E2,-1.0176693E1,-2.7357957E0,6.6225863E0,5.030285E1,1.720011E1,3.6950584E1,5.1399326E1,8.476394E0,2.0231237E1,7.838342E0,-7.7090836E-1,-1.736772E0,1.8152384E0,-4.1105458E-1,2.8575608E-1,2.666797E0,7.3208475E0,-1.2276016E0,-2.5341815E-1,2.6111696E0,2.6136398E0,5.801545E0,1.4830791E0,5.66999E0],"categories":[],"categories_nodes":[],"categories_segments":[],"categories_sizes":[],"default_left":[0,0,0,0,0,0,0,0,0,0,0,0,0,0,0,0,0,0,0,0,0,0,0,0,0,0,0,0,0,0,0,0,0,0,0,0,0],"id":19,"left_children":[1,3,5,7,9,-1,11,13,15,17,19,-1,21,23,25,27,29,31,33,35,-1,-1,-1,-1,-1,-1,-1,-1,-1,-1,-1,-1,-1,-1,-1,-1,-1],"loss_changes":[6.156646E5,1.2919646E5,1.07691375E5,1.9162674E4,2.287004E4,0E0,2.8584062E3,1.1570781E4,1.3434202E4,4.3236016E3,1.4873828E3,0E0,1.5546562E3,5.6863555E3,1.672991E4,4.753963E3,1.2365971E4,4.638631E3,4.4064727E3,1.6789336E3,0E0,0E0,0E0,0E0,0E0,0E0,0E0,0E0,0E0,0E0,0E0,0E0,0E0,0E0,0E0,0E0,0E0],"parents":[2147483647,0,0,1,1,2,2,3,3,4,4,6,6,7,7,8,8,9,9,10,10,12,12,13,13,14,14,15,15,16,16,17,17,18,18,19,19],"right_children":[2,4,6,8,10,-1,12,14,16,18,20,-1,22,24,26,28,30,32,34,36,-1,-1,-1,-1,-1,-1,-1,-1,-1,-1,-1,-1,-1,-1,-1,-1,-1],"split_conditions":[8.129575E2,6.806382E2,1.03E2,6.2058826E2,7.579692E2,4.742988E1,2.975E2,1.3483333E2,4.39E2,1.52E2,7.8525275E2,6.838351E0,1.93E2,1.3E2,1.02E2,4E0,6.473643E2,6.9600696E2,1.6E1,1.19E2,8.476394E0,2.0231237E1,7.838342E0,-7.7090836E-1,-1.736772E0,1.8152384E0,-4.1105458E-1,2.8575608E-1,2.666797E0,7.3208475E0,-1.2276016E0,-2.5341815E-1,2.6111696E0,2.6136398E0,5.801545E0,1.4830791E0,5.66999E0],"split_indices":[7,7,3,7,7,0,5,5,3,4,7,0,3,3,3,1,7,7,0,4,0,0,0,0,0,0,0,0,0,0,0,0,0,0,0,0,0],"split_type":[0,0,0,0,0,0,0,0,0,0,0,0,0,0,0,0,0,0,0,0,0,0,0,0,0,0,0,0,0,0,0,0,0,0,0,0,0],"sum_hessian":[1.056E3,1.046E3,1E1,9.76E2,7E1,1E0,9E0,9.06E2,7E1,5E1,2E1,2E0,7E0,3.27E2,5.79E2,6.3E1,7E0,2.5E1,2.5E1,1.2E1,8E0,5E0,2E0,2.45E2,8.2E1,3.5E1,5.44E2,5.4E1,9E0,5E0,2E0,8E0,1.7E1,1.8E1,7E0,2E0,1E1],"tree_param":{"num_deleted":"0","num_feature":"9","num_nodes":"37","size_leaf_vector":"1"}},{"base_weights":[1.2541734E0,-1.0498297E0,2.2043936E2,-3.7673085E0,3.6358994E1,4.505838E1,1.5236655E2,-5.7240653E0,4.8697224E0,2.5056843E1,6.2075695E1,6.3824587E0,1.6652396E2,-1.1522583E1,-3.7491918E0,1.2061955E2,2.902576E0,1.5570778E1,3.357918E1,6.40803E1,1.0991806E0,1.8545301E1,7.315786E0,-9.5221645E-1,-3.0288608E0,8.945196E-1,-5.2133095E-1,-8.887337E-1,1.8981667E1,4.627547E0,-7.7286415E-2,-2.3089209E-1,2.3645585E0,2.3660314E0,5.29391E0,2.9444993E0,6.846035E0],"categories":[],"categories_nodes":[],"categories_segments":[],"categories_sizes":[],"default_left":[0,0,0,0,0,0,0,0,0,0,0,0,0,0,0,0,0,0,0,0,0,0,0,0,0,0,0,0,0,0,0,0,0,0,0,0,0],"id":20,"left_children":[1,3,5,7,9,-1,11,13,15,17,19,-1,21,23,25,27,29,31,33,35,-1,-1,-1,-1,-1,-1,-1,-1,-1,-1,-1,-1,-1,-1,-1,-1,-1],"loss_changes":[5.3401994E5,1.06572555E5,1.036785E5,1.653973E4,1.9081023E4,0E0,1.9069375E3,9.083516E3,4.0863027E4,3.6001602E3,1.4461094E3,0E0,5.713125E2,7.2946504E3,1.1123935E4,2.8571473E4,2.8570953E4,3.808349E3,3.7401855E3,1.01827344E3,0E0,0E0,0E0,0E0,0E0,0E0,0E0,0E0,0E0,0E0,0E0,0E0,0E0,0E0,0E0,0E0,0E0],"parents":[2147483647,0,0,1,1,2,2,3,3,4,4,6,6,7,7,8,8,9,9,10,10,12,12,13,13,14,14,15,15,16,16,17,17,18,18,19,19],"right_children":[2,4,6,8,10,-1,12,14,16,18,20,-1,22,24,26,28,30,32,34,36,-1,-1,-1,-1,-1,-1,-1,-1,-1,-1,-1,-1,-1,-1,-1,-1,-1],"split_conditions":[8.129575E2,6.806382E2,1.03E2,2.0616667E2,7.579692E2,4.505838E1,2.975E2,3.1454086E2,1.5070833E2,1.52E2,2.4929167E2,6.3824587E0,1.93E2,1.7116667E2,1.03E2,1.7E1,1.2E1,6.9600696E2,1.6E1,1.19E2,1.0991806E0,1.8545301E1,7.315786E0,-9.5221645E-1,-3.0288608E0,8.945196E-1,-5.2133095E-1,-8.887337E-1,1.8981667E1,4.627547E0,-7.7286415E-2,-2.3089209E-1,2.3645585E0,2.3660314E0,5.29391E0,2.9444993E0,6.846035E0],"split_indices":[7,7,3,5,7,0,5,7,6,4,6,0,3,5,4,0,0,7,0,4,0,0,0,0,0,0,0,0,0,0,0,0,0,0,0,0,0],"split_type":[0,0,0,0,0,0,0,0,0,0,0,0,0,0,0,0,0,0,0,0,0,0,0,0,0,0,0,0,0,0,0,0,0,0,0,0,0],"sum_hessian":[1.056E3,1.046E3,1E1,9.76E2,7E1,1E0,9E0,7.96E2,1.8E2,5E1,2E1,2E0,7E0,2.01E2,5.95E2,2E0,1.78E2,2.5E1,2.5E1,1.9E1,1E0,5E0,2E0,1.83E2,1.8E1,6.1E1,5.34E2,1E0,1E0,1.3E1,1.65E2,8E0,1.7E1,1.8E1,7E0,3E0,1.6E1],"tree_param":{"num_deleted":"0","num_feature":"9","num_nodes":"37","size_leaf_vector":"1"}},{"base_weights":[1.2394664E0,-4.7485664E-1,2.5845575E2,-2.5601437E0,5.5181877E1,1.5884685E1,4.280546E1,-4.478868E0,1.3577291E1,3.854816E1,8.420455E1,-3.679708E0,-2.1268936E1,7.138623E0,2.9339832E1,5.471161E0,3.0963547E1,2.0203888E0,8.785429E0,-5.342576E-1,9.575454E-1,-2.7939389E0,2.22986E0,3.2541718E0,2.9243195E-1,7.310867E-1,5.9279103E0,3.215883E0,4.126602E-1],"categories":[],"categories_nodes":[],"categories_segments":[],"categories_sizes":[],"default_left":[0,0,0,0,0,0,0,0,0,0,0,0,0,0,0,0,0,0,0,0,0,0,0,0,0,0,0,0,0],"id":21,"left_children":[1,3,5,7,9,-1,-1,11,13,15,17,19,21,23,25,-1,27,-1,-1,-1,-1,-1,-1,-1,-1,-1,-1,-1,-1],"loss_changes":[4.662088E5,1.2212062E5,5.025978E4,3.1457582E4,1.509875E4,0E0,0E0,1.2091816E4,1.0751447E4,1.4933672E3,1.2616016E3,1.9161209E4,1.253823E4,8.255234E3,2.0012082E4,0E0,5.0884766E2,0E0,0E0,0E0,0E0,0E0,0E0,0E0,0E0,0E0,0E0,0E0,0E0],"parents":[2147483647,0,0,1,1,2,2,3,3,4,4,7,7,8,8,9,9,10,10,11,11,12,12,13,13,14,14,16,16],"right_children":[2,4,6,8,10,-1,-1,12,14,16,18,20,22,24,26,-1,28,-1,-1,-1,-1,-1,-1,-1,-1,-1,-1,-1,-1],"split_conditions":[8.531916E2,7.280172E2,3E0,6.2058826E2,7.8525275E2,1.5884685E1,4.280546E1,3.71E2,2.41E2,1.7554167E2,2.1983333E2,2.18E2,5E0,1.4908333E2,2E0,5.471161E0,1.9E1,2.0203888E0,8.785429E0,-5.342576E-1,9.575454E-1,-2.7939389E0,2.22986E0,3.2541718E0,2.9243195E-1,7.310867E-1,5.9279103E0,3.215883E0,4.126602E-1],"split_indices":[7,7,1,7,7,0,0,3,5,6,5,5,1,6,1,0,0,0,0,0,0,0,0,0,0,0,0,0,0],"split_type":[0,0,0,0,0,0,0,0,0,0,0,0,0,0,0,0,0,0,0,0,0,0,0,0,0,0,0,0,0],"sum_hessian":[1.056E3,1.05E3,6E0,1.013E3,3.7E1,5E0,1E0,9.06E2,1.07E2,2.5E1,1.2E1,8.66E2,4E1,7.7E1,3E1,6E0,1.9E1,1E0,1.1E1,7.7E2,9.6E1,3.5E1,5E0,1E1,6.7E1,1.8E1,1.2E1,1.8E1,1E0],"tree_param":{"num_deleted":"0","num_feature":"9","num_nodes":"29","size_leaf_vector":"1"}},{"base_weights":[1.1993985E0,-3.9885584E-1,2.4099452E2,-2.3969705E0,4.766054E1,1.4560964E1,4.066519E1,-4.031138E0,1.1877903E1,3.3524776E1,7.661534E1,-3.4883246E0,-2.6766577E1,8.830965E0,4.3058804E1,4.652404E1,2.7545696E1,1.9193696E0,7.9801E1,-4.9903652E-1,7.2784424E-1,-3.7119179E0,2.6511781E0,1.2166237E0,-9.9905854E-1,-1.8018792E0,5.2945857E0,1.1019013E0,5.0022044E0,2.8988893E0,8.2614243E-1,3.4384115E0,8.544597E0],"categories":[],"categories_nodes":[],"categories_segments":[],"categories_sizes":[],"default_left":[0,0,0,0,0,0,0,0,0,0,0,0,0,0,0,0,0,0,0,0,0,0,0,0,0,0,0,0,0,0,0,0,0],"id":22,"left_children":[1,3,5,7,9,-1,-1,11,13,15,17,19,21,23,25,27,29,-1,31,-1,-1,-1,-1,-1,-1,-1,-1,-1,-1,-1,-1,-1,-1],"loss_changes":[4.0519516E5,1.0103986E5,5.139603E4,2.360869E4,1.4622016E4,0E0,0E0,1.1100005E4,9.500399E3,1.0501719E3,8.463672E2,1.4380988E4,1.256706E4,6.1479463E3,6.388914E3,4.4238086E2,4.0062305E2,0E0,1.3853906E2,0E0,0E0,0E0,0E0,0E0,0E0,0E0,0E0,0E0,0E0,0E0,0E0,0E0,0E0],"parents":[2147483647,0,0,1,1,2,2,3,3,4,4,7,7,8,8,9,9,10,10,11,11,12,12,13,13,14,14,15,15,16,16,18,18],"right_children":[2,4,6,8,10,-1,-1,12,14,16,18,20,22,24,26,28,30,-1,32,-1,-1,-1,-1,-1,-1,-1,-1,-1,-1,-1,-1,-1,-1],"split_conditions":[8.531916E2,7.208881E2,3E0,6.2058826E2,7.8525275E2,1.4560964E1,4.066519E1,3.78E2,3.4133334E2,1.7554167E2,2.1983333E2,2.18E2,2.6845834E2,2.1208333E2,2.11375E2,1.2E1,1.8E1,1.9193696E0,1E0,-4.9903652E-1,7.2784424E-1,-3.7119179E0,2.6511781E0,1.2166237E0,-9.9905854E-1,-1.8018792E0,5.2945857E0,1.1019013E0,5.0022044E0,2.8988893E0,8.2614243E-1,3.4384115E0,8.544597E0],"split_indices":[7,7,1,7,7,0,0,5,5,6,5,5,6,6,6,0,0,0,1,0,0,0,0,0,0,0,0,0,0,0,0,0,0],"split_type":[0,0,0,0,0,0,0,0,0,0,0,0,0,0,0,0,0,0,0,0,0,0,0,0,0,0,0,0,0,0,0,0,0],"sum_hessian":[1.056E3,1.05E3,6E0,1.009E3,4.1E1,5E0,1E0,9.06E2,1.03E2,2.9E1,1.2E1,8.86E2,2E1,9.5E1,8E0,7E0,2.2E1,1E0,1.1E1,7.78E2,1.08E2,1.7E1,3E0,8.1E1,1.4E1,1E0,7E0,1E0,6E0,2E1,2E0,2E0,9E0],"tree_param":{"num_deleted":"0","num_feature":"9","num_nodes":"33","size_leaf_vector":"1"}},{"base_weights":[1.1568834E0,-3.336501E-1,2.2478456E2,-2.0622764E0,4.5802155E1,1.3347554E2,3.8631935E1,-3.6289396E0,1.1113889E1,3.1930008E1,7.00232E1,1.4517102E1,3.7499084E0,-8.897659E0,-1.4518948E0,5.6115522E0,2.4599966E1,4.5734444E0,2.5501955E1,8.497919E0,4.5063906E0,-9.820804E-1,2.6529758E0,5.397365E-1,-7.023682E-1,2.847736E0,1.8301488E-1,-4.0500593E-1,4.290788E0,2.7050397E0,7.710653E-1],"categories":[],"categories_nodes":[],"categories_segments":[],"categories_sizes":[],"default_left":[0,0,0,0,0,0,0,0,0,0,0,0,0,0,0,0,0,0,0,0,0,0,0,0,0,0,0,0,0,0,0],"id":23,"left_children":[1,3,5,7,9,11,-1,13,15,17,19,-1,-1,21,23,25,27,-1,29,-1,-1,-1,-1,-1,-1,-1,-1,-1,-1,-1,-1],"loss_changes":[3.5239906E5,8.3913336E4,5.1682844E4,2.0971943E4,1.0532078E4,1.2911641E3,0E0,1.0390588E4,7.876091E3,1.1408105E3,1.02329297E3,0E0,0E0,8.927266E3,2.457647E4,6.6921396E3,1.6433965E4,0E0,3.423994E2,0E0,0E0,0E0,0E0,0E0,0E0,0E0,0E0,0E0,0E0,0E0,0E0],"parents":[2147483647,0,0,1,1,2,2,3,3,4,4,5,5,7,7,8,8,9,9,10,10,13,13,14,14,15,15,16,16,18,18],"right_children":[2,4,6,8,10,12,-1,14,16,18,20,-1,-1,22,24,26,28,-1,30,-1,-1,-1,-1,-1,-1,-1,-1,-1,-1,-1,-1],"split_conditions":[8.531916E2,7.280172E2,3E0,6.2058826E2,7.8525275E2,1.93E2,3.8631935E1,6E0,2.41E2,1.7554167E2,1.56E2,1.4517102E1,3.7499084E0,2.32E2,1.4E1,1.4908333E2,1.48E2,4.5734444E0,1.8E1,8.497919E0,4.5063906E0,-9.820804E-1,2.6529758E0,5.397365E-1,-7.023682E-1,2.847736E0,1.8301488E-1,-4.0500593E-1,4.290788E0,2.7050397E0,7.710653E-1],"split_indices":[7,7,1,7,7,3,0,0,5,6,4,0,0,4,0,6,4,0,0,0,0,0,0,0,0,0,0,0,0,0,0],"split_type":[0,0,0,0,0,0,0,0,0,0,0,0,0,0,0,0,0,0,0,0,0,0,0,0,0,0,0,0,0,0,0],"sum_hessian":[1.056E3,1.05E3,6E0,1.013E3,3.7E1,5E0,1E0,9.06E2,1.07E2,2.5E1,1.2E1,4E0,1E0,2.64E2,6.42E2,7.7E1,3E1,6E0,1.9E1,6E0,6E0,2.58E2,6E0,2.88E2,3.54E2,1E1,6.7E1,1.2E1,1.8E1,1.7E1,2E0],"tree_param":{"num_deleted":"0","num_feature":"9","num_nodes":"31","size_leaf_vector":"1"}},{"base_weights":[1.1229134E0,-2.7223817E-1,2.1043454E2,-1.8477414E0,4.1775986E1,1.2317251E2,3.6700336E1,-3.2643838E0,1.006654E1,2.904661E1,6.40212E1,1.3355735E1,3.5624146E0,-2.5397134E0,-1.8508892E1,6.417899E0,2.7953194E1,3.4944267E1,1.7827599E1,7.769525E1,4.1201267E0,-3.9725468E-1,8.875279E-1,-2.4447415E0,2.0207062E0,1.2845902E0,-4.2339322E-1,9.247921E-1,5.602607E0,3.8719444E0,1.3938881E0,9.4031423E-1,2.3280787E0,4.154846E0,9.441823E0],"categories":[],"categories_nodes":[],"categories_segments":[],"categories_sizes":[],"default_left":[0,0,0,0,0,0,0,0,0,0,0,0,0,0,0,0,0,0,0,0,0,0,0,0,0,0,0,0,0,0,0,0,0,0,0],"id":24,"left_children":[1,3,5,7,9,11,-1,13,15,17,19,-1,-1,21,23,25,27,29,31,33,-1,-1,-1,-1,-1,-1,-1,-1,-1,-1,-1,-1,-1,-1,-1],"loss_changes":[3.0872394E5,6.970291E4,5.0432906E4,1.7147434E4,8.900781E3,6.971797E2,0E0,9.972842E3,6.8688926E3,1.0973398E3,8.553906E2,0E0,0E0,1.4215719E4,9.920551E3,6.285159E3,8.933869E3,7.290801E2,2.864292E2,3.084375E2,0E0,0E0,0E0,0E0,0E0,0E0,0E0,0E0,0E0,0E0,0E0,0E0,0E0,0E0,0E0],"parents":[2147483647,0,0,1,1,2,2,3,3,4,4,5,5,7,7,8,8,9,9,10,10,13,13,14,14,15,15,16,16,17,17,18,18,19,19],"right_children":[2,4,6,8,10,12,-1,14,16,18,20,-1,-1,22,24,26,28,30,32,34,-1,-1,-1,-1,-1,-1,-1,-1,-1,-1,-1,-1,-1,-1,-1],"split_conditions":[8.531916E2,7.280172E2,3E0,6.2058826E2,7.8525275E2,1.93E2,3.6700336E1,3.71E2,3.32E2,2.9033334E2,1.56E2,1.3355735E1,3.5624146E0,2.18E2,5E0,2E2,2.41E2,2.11375E2,2.92E2,1.8704167E2,4.1201267E0,-3.9725468E-1,8.875279E-1,-2.4447415E0,2.0207062E0,1.2845902E0,-4.2339322E-1,9.247921E-1,5.602607E0,3.8719444E0,1.3938881E0,9.4031423E-1,2.3280787E0,4.154846E0,9.441823E0],"split_indices":[7,7,1,7,7,3,0,3,4,5,4,0,0,5,1,3,5,6,3,6,0,0,0,0,0,0,0,0,0,0,0,0,0,0,0],"split_type":[0,0,0,0,0,0,0,0,0,0,0,0,0,0,0,0,0,0,0,0,0,0,0,0,0,0,0,0,0,0,0,0,0,0,0],"sum_hessian":[1.056E3,1.05E3,6E0,1.013E3,3.7E1,5E0,1E0,9.06E2,1.07E2,2.5E1,1.2E1,4E0,1E0,8.66E2,4E1,9E1,1.7E1,1.5E1,1E1,6E0,6E0,7.7E2,9.6E1,3.5E1,5E0,5.6E1,3.4E1,1.1E1,6E0,1.2E1,3E0,5E0,5E0,3E0,3E0],"tree_param":{"num_deleted":"0","num_feature":"9","num_nodes":"35","size_leaf_vector":"1"}},{"base_weights":[1.0932338E0,-2.1294774E-1,1.9705089E2,-1.7361723E0,3.6422047E1,1.13674965E2,3.4865322E1,-6.4947896E0,9.899667E-1,2.5432035E1,5.8981915E1,1.2287278E1,3.3842957E0,-3.7787902E0,-1.2590374E1,5.696217E0,-3.091653E0,3.611716E1,2.060973E1,7.18681E1,3.766974E0,-8.9873314E-1,2.685485E-1,-1.821547E-1,-1.5322169E0,4.1868058E-1,1.159686E1,-4.9774656E-1,1.8436205E0,1.6547333E0,4.4549594E0,1.5899366E0,2.745424E0,3.8432329E0,8.7336855E0],"categories":[],"categories_nodes":[],"categories_segments":[],"categories_sizes":[],"default_left":[0,0,0,0,0,0,0,0,0,0,0,0,0,0,0,0,0,0,0,0,0,0,0,0,0,0,0,0,0,0,0,0,0,0,0],"id":25,"left_children":[1,3,5,7,9,11,-1,13,15,17,19,-1,-1,21,23,25,27,29,31,33,-1,-1,-1,-1,-1,-1,-1,-1,-1,-1,-1,-1,-1,-1,-1],"loss_changes":[2.7058772E5,5.8712527E4,4.884675E4,1.3108809E4,8.91316E3,2.4730469E2,0E0,6.0448867E3,1.2369077E4,8.0144336E2,8.6297656E2,0E0,0E0,8.643513E3,3.2963496E3,4.928193E4,1.4097905E4,5.829922E2,3.0501855E2,2.6391016E2,0E0,0E0,0E0,0E0,0E0,0E0,0E0,0E0,0E0,0E0,0E0,0E0,0E0,0E0,0E0],"parents":[2147483647,0,0,1,1,2,2,3,3,4,4,5,5,7,7,8,8,9,9,10,10,13,13,14,14,15,15,16,16,17,17,18,18,19,19],"right_children":[2,4,6,8,10,12,-1,14,16,18,20,-1,-1,22,24,26,28,30,32,34,-1,-1,-1,-1,-1,-1,-1,-1,-1,-1,-1,-1,-1,-1,-1],"split_conditions":[8.531916E2,7.208881E2,3E0,1.37E2,7.8525275E2,1.93E2,3.4865322E1,9E0,1.45E2,1.7554167E2,1.56E2,1.2287278E1,3.3842957E0,1.225E2,1.1E2,1.43E2,4.09E2,1.5E1,7.660798E2,1.8704167E2,3.766974E0,-8.9873314E-1,2.685485E-1,-1.821547E-1,-1.5322169E0,4.1868058E-1,1.159686E1,-4.9774656E-1,1.8436205E0,1.6547333E0,4.4549594E0,1.5899366E0,2.745424E0,3.8432329E0,8.7336855E0],"split_indices":[7,7,1,5,7,3,0,0,3,6,4,0,0,5,3,3,4,0,7,6,0,0,0,0,0,0,0,0,0,0,0,0,0,0,0],"split_type":[0,0,0,0,0,0,0,0,0,0,0,0,0,0,0,0,0,0,0,0,0,0,0,0,0,0,0,0,0,0,0,0,0,0,0],"sum_hessian":[1.056E3,1.05E3,6E0,1.009E3,4.1E1,5E0,1E0,3.67E2,6.42E2,2.9E1,1.2E1,4E0,1E0,2.55E2,1.12E2,2.98E2,3.44E2,7E0,2.2E1,6E0,6E0,1.41E2,1.14E2,2.3E1,8.9E1,2.95E2,3E0,3.17E2,2.7E1,3E0,4E0,1.5E1,7E0,3E0,3E0],"tree_param":{"num_deleted":"0","num_feature":"9","num_nodes":"35","size_leaf_vector":"1"}},{"base_weights":[1.0674856E0,-1.5568541E-1,1.8456538E2,-2.0755038E0,2.4855227E1,1.0491943E1,3.312205E1,-7.4619293E0,-7.06256E-2,1.8376347E1,5.434094E1,9.50266E-2,-1.1219597E1,7.7901764E0,-3.3679588E0,8.421682E0,2.3512466E1,6.6477974E1,3.444091E1,1.4777287E0,-7.620992E-1,-8.168506E-1,-4.3626814E0,2.8665522E-1,1.1797969E1,-1.2364134E0,-1.0078228E-2,-6.244192E-1,1.5228264E0,5.100124E0,2.0000162E0,3.5549881E0,8.078658E0,1.8069458E0,4.2202134E0],"categories":[],"categories_nodes":[],"categories_segments":[],"categories_sizes":[],"default_left":[0,0,0,0,0,0,0,0,0,0,0,0,0,0,0,0,0,0,0,0,0,0,0,0,0,0,0,0,0,0,0,0,0,0,0],"id":26,"left_children":[1,3,5,7,9,-1,-1,11,13,15,17,19,21,23,25,27,29,31,33,-1,-1,-1,-1,-1,-1,-1,-1,-1,-1,-1,-1,-1,-1,-1,-1],"loss_changes":[2.3727162E5,5.051684E4,4.7011953E4,1.0550221E4,1.3328992E4,0E0,0E0,7.5261445E3,1.850697E4,3.0230723E3,8.5029297E2,1.0195302E4,1.7144926E4,1.14136E5,1.4782974E4,2.3910513E3,2.9384727E3,2.2581055E2,1.26868164E2,0E0,0E0,0E0,0E0,0E0,0E0,0E0,0E0,0E0,0E0,0E0,0E0,0E0,0E0,0E0,0E0],"parents":[2147483647,0,0,1,1,2,2,3,3,4,4,7,7,8,8,9,9,10,10,11,11,12,12,13,13,14,14,15,15,16,16,17,17,18,18],"right_children":[2,4,6,8,10,-1,-1,12,14,16,18,20,22,24,26,28,30,32,34,-1,-1,-1,-1,-1,-1,-1,-1,-1,-1,-1,-1,-1,-1,-1,-1],"split_conditions":[8.531916E2,6.806382E2,3E0,6E0,7.8525275E2,1.0491943E1,3.312205E1,2E0,1.1E1,1.3E2,1.56E2,1.21E2,1.6E2,1.7666667E2,2E0,6.9600696E2,1.4908333E2,1.8704167E2,1.5E1,1.4777287E0,-7.620992E-1,-8.168506E-1,-4.3626814E0,2.8665522E-1,1.1797969E1,-1.2364134E0,-1.0078228E-2,-6.244192E-1,1.5228264E0,5.100124E0,2.0000162E0,3.5549881E0,8.078658E0,1.8069458E0,4.2202134E0],"split_indices":[7,7,1,0,7,0,0,0,0,4,4,4,5,5,1,7,6,6,0,0,0,0,0,0,0,0,0,0,0,0,0,0,0,0,0],"split_type":[0,0,0,0,0,0,0,0,0,0,0,0,0,0,0,0,0,0,0,0,0,0,0,0,0,0,0,0,0,0,0,0,0,0,0],"sum_hessian":[1.056E3,1.05E3,6E0,9.76E2,7.4E1,5E0,1E0,2.64E2,7.12E2,6.2E1,1.2E1,8.8E1,1.76E2,2.1E2,5.02E2,2.2E1,4E1,6E0,6E0,3E1,5.8E1,1.62E2,1.4E1,2.02E2,8E0,1.33E2,3.69E2,7E0,1.5E1,3E0,3.7E1,3E0,3E0,3E0,3E0],"tree_param":{"num_deleted":"0","num_feature":"9","num_nodes":"35","size_leaf_vector":"1"}},{"base_weights":[1.0323038E0,-1.09639145E-1,1.723394E2,-2.0641534E0,2.0532097E1,9.617615E1,3.1465948E1,-8.012481E0,-6.2621623E-1,1.537938E1,5.026536E1,1.0464944E2,2.6904848E0,-3.3884025E0,-1.2454868E1,3.0007493E0,-4.463174E0,4.8128376E0,2.28551E1,6.3854786E1,3.3790123E0,4.4450564E0,1.2996516E1,-4.568491E-1,1.1473458E-1,-2.2585468E0,-8.1002855E-1,-6.9654995E-1,1.130743E0,-1.2811623E0,-1.23588346E-1,3.4833686E0,-3.5106506E-2,3.0358837E0,9.4960207E-1,3.2883637E0,8.386473E0],"categories":[],"categories_nodes":[],"categories_segments":[],"categories_sizes":[],"default_left":[0,0,0,0,0,0,0,0,0,0,0,0,0,0,0,0,0,0,0,0,0,0,0,0,0,0,0,0,0,0,0,0,0,0,0,0,0],"id":27,"left_children":[1,3,5,7,9,11,-1,13,15,17,19,21,-1,23,25,27,29,31,33,35,-1,-1,-1,-1,-1,-1,-1,-1,-1,-1,-1,-1,-1,-1,-1,-1,-1],"loss_changes":[2.0679236E5,4.2444527E4,4.5614188E4,8.214727E3,1.3168793E4,7.0615625E2,0E0,3.7991416E3,1.079869E4,6.130408E3,7.5289453E2,1.8428672E3,0E0,5.0303198E2,4.0079307E3,3.311056E4,1.0141627E4,5.28307E3,4.3228906E3,9.606074E2,0E0,0E0,0E0,0E0,0E0,0E0,0E0,0E0,0E0,0E0,0E0,0E0,0E0,0E0,0E0,0E0,0E0],"parents":[2147483647,0,0,1,1,2,2,3,3,4,4,5,5,7,7,8,8,9,9,10,10,11,11,13,13,14,14,15,15,16,16,17,17,18,18,19,19],"right_children":[2,4,6,8,10,12,-1,14,16,18,20,22,-1,24,26,28,30,32,34,36,-1,-1,-1,-1,-1,-1,-1,-1,-1,-1,-1,-1,-1,-1,-1,-1,-1],"split_conditions":[8.531916E2,6.574289E2,3E0,1.23666664E2,7.8525275E2,1.93E2,3.1465948E1,1.1E2,1.4E1,2.0983333E2,1.53E2,1.17E2,2.6904848E0,1.07E2,1.13166664E2,6E0,2E0,1.4908333E2,2.59E2,1.8704167E2,3.3790123E0,4.4450564E0,1.2996516E1,-4.568491E-1,1.1473458E-1,-2.2585468E0,-8.1002855E-1,-6.9654995E-1,1.130743E0,-1.2811623E0,-1.23588346E-1,3.4833686E0,-3.5106506E-2,3.0358837E0,9.4960207E-1,3.2883637E0,8.386473E0],"split_indices":[7,7,1,5,7,3,0,4,0,5,4,3,0,4,5,0,1,6,3,6,0,0,0,0,0,0,0,0,0,0,0,0,0,0,0,0,0],"split_type":[0,0,0,0,0,0,0,0,0,0,0,0,0,0,0,0,0,0,0,0,0,0,0,0,0,0,0,0,0,0,0,0,0,0,0,0,0],"sum_hessian":[1.056E3,1.05E3,6E0,9.6E2,9E1,5E0,1E0,1.86E2,7.74E2,7.8E1,1.2E1,4E0,1E0,9.2E1,9.4E1,3.98E2,3.76E2,3.3E1,4.5E1,5E0,7E0,2E0,2E0,7.3E1,1.9E1,2.7E1,6.7E1,1.81E2,2.17E2,1.04E2,2.72E2,4E0,2.9E1,2.8E1,1.7E1,3E0,2E0],"tree_param":{"num_deleted":"0","num_feature":"9","num_nodes":"37","size_leaf_vector":"1"}},{"base_weights":[9.9501705E-1,-8.144947E-2,1.6247664E2,-2.051051E0,1.713508E1,8.99139E1,2.9892653E1,-6.6879374E-1,-7.718426E0,1.2994066E1,4.6396797E1,9.767283E1,2.5559633E0,-1.3457547E0,3.0894005E1,-1.713265E1,4.8519015E0,4.2586775E0,1.942847E1,5.94151E1,3.0833473E1,4.1487184E0,1.2130087E1,-4.542179E-2,-2.334183E0,4.5785804E0,-4.8899055E0,-1.8997246E0,5.321755E0,-9.102706E-3,3.9461505E0,2.570915E0,-7.6596424E-2,1.3941354E0,4.5924697E0,3.0417345E0,7.8273745E0,8.805298E-1,3.2722454E0],"categories":[],"categories_nodes":[],"categories_segments":[],"categories_sizes":[],"default_left":[0,0,0,0,0,0,0,0,0,0,0,0,0,0,0,0,0,0,0,0,0,0,0,0,0,0,0,0,0,0,0,0,0,0,0,0,0,0,0],"id":28,"left_children":[1,3,5,7,9,11,-1,13,15,17,19,21,-1,23,25,27,29,31,33,35,37,-1,-1,-1,-1,-1,-1,-1,-1,-1,-1,-1,-1,-1,-1,-1,-1,-1,-1],"loss_changes":[1.8375106E5,3.5674246E4,4.2430594E4,7.389917E3,1.248382E4,4.994375E2,0E0,1.6280331E4,2.1976006E4,5.313134E3,8.0193164E2,1.6053516E3,0E0,1.459908E4,2.1251074E4,1.4915506E4,1.3689415E4,4.5464917E3,7.35608E3,9.002715E2,4.475537E1,0E0,0E0,0E0,0E0,0E0,0E0,0E0,0E0,0E0,0E0,0E0,0E0,0E0,0E0,0E0,0E0,0E0,0E0],"parents":[2147483647,0,0,1,1,2,2,3,3,4,4,5,5,7,7,8,8,9,9,10,10,11,11,13,13,14,14,15,15,16,16,17,17,18,18,19,19,20,20],"right_children":[2,4,6,8,10,12,-1,14,16,18,20,22,-1,24,26,28,30,32,34,36,38,-1,-1,-1,-1,-1,-1,-1,-1,-1,-1,-1,-1,-1,-1,-1,-1,-1,-1],"split_conditions":[8.531916E2,6.454919E2,3E0,1.94E2,7.8525275E2,1.93E2,2.9892653E1,1.84E2,1.845E2,2.0983333E2,1.53E2,1.17E2,2.5559633E0,2.93E2,2.1975E2,6.83E2,2.1E1,1.5070833E2,1.8E1,1.8704167E2,1E0,4.1487184E0,1.2130087E1,-4.542179E-2,-2.334183E0,4.5785804E0,-4.8899055E0,-1.8997246E0,5.321755E0,-9.102706E-3,3.9461505E0,2.570915E0,-7.6596424E-2,1.3941354E0,4.5924697E0,3.0417345E0,7.8273745E0,8.805298E-1,3.2722454E0],"split_indices":[7,7,1,3,7,3,0,3,6,5,4,3,0,5,6,3,0,6,0,6,1,0,0,0,0,0,0,0,0,0,0,0,0,0,0,0,0,0,0],"split_type":[0,0,0,0,0,0,0,0,0,0,0,0,0,0,0,0,0,0,0,0,0,0,0,0,0,0,0,0,0,0,0,0,0,0,0,0,0,0,0],"sum_hessian":[1.056E3,1.05E3,6E0,9.43E2,1.07E2,5E0,1E0,7.59E2,1.84E2,9.5E1,1.2E1,4E0,1E0,7.44E2,1.5E1,1.05E2,7.9E1,4.1E1,5.4E1,5E0,7E0,2E0,2E0,7.16E2,2.8E1,1.3E1,2E0,1.03E2,2E0,7E1,9E0,7E0,3.4E1,4.6E1,8E0,3E0,2E0,1E0,6E0],"tree_param":{"num_deleted":"0","num_feature":"9","num_nodes":"39","size_leaf_vector":"1"}},{"base_weights":[9.682692E-1,-4.649835E-2,1.5319005E2,-1.0887759E0,2.776708E1,8.4061646E1,2.8398024E1,-3.0339813E0,4.1235266E0,2.0747574E1,4.80802E1,9.11613E1,2.4281678E0,-2.0806546E0,-2.4739616E1,3.9668907E1,1.9287006E0,2.2431652E1,-1.8863525E0,6.5077424E0,2.8735352E1,3.8721395E0,1.1321411E1,-2.7809152E-1,3.8824565E0,-4.6410823E0,-1.5221825E-1,1.8410736E0,1.7927076E1,1.6239626E0,-2.51733E-1,2.9476364E0,1.6139406E0,1.281128E-2,-2.9576418E-1,8.365021E-1,3.1136415E0],"categories":[],"categories_nodes":[],"categories_segments":[],"categories_sizes":[],"default_left":[0,0,0,0,0,0,0,0,0,0,0,0,0,0,0,0,0,0,0,0,0,0,0,0,0,0,0,0,0,0,0,0,0,0,0,0,0],"id":29,"left_children":[1,3,5,7,9,11,-1,13,15,17,19,21,-1,23,25,27,29,31,33,-1,35,-1,-1,-1,-1,-1,-1,-1,-1,-1,-1,-1,-1,-1,-1,-1,-1],"loss_changes":[1.6328162E5,3.0498166E4,3.9417344E4,1.0293456E4,4.420799E3,3.3295312E2,0E0,1.5240327E4,2.1455889E4,1.185834E3,1.0892539E3,1.3984297E3,0E0,2.0416793E4,1.5527002E4,4.418237E4,1.6647479E4,7.654258E2,6.853135E0,0E0,3.300586E1,0E0,0E0,0E0,0E0,0E0,0E0,0E0,0E0,0E0,0E0,0E0,0E0,0E0,0E0,0E0,0E0],"parents":[2147483647,0,0,1,1,2,2,3,3,4,4,5,5,7,7,8,8,9,9,10,10,11,11,13,13,14,14,15,15,16,16,17,17,18,18,20,20],"right_children":[2,4,6,8,10,12,-1,14,16,18,20,22,-1,24,26,28,30,32,34,-1,36,-1,-1,-1,-1,-1,-1,-1,-1,-1,-1,-1,-1,-1,-1,-1,-1],"split_conditions":[8.531916E2,7.280172E2,3E0,1.85E2,7.990157E2,1.93E2,2.8398024E1,1.7816667E2,1.5070833E2,1.8E1,1.53E2,1.17E2,2.4281678E0,1.7666667E2,4.2062314E2,4E0,1.4E1,1.8704167E2,1.9E1,6.5077424E0,1E0,3.8721395E0,1.1321411E1,-2.7809152E-1,3.8824565E0,-4.6410823E0,-1.5221825E-1,1.8410736E0,1.7927076E1,1.6239626E0,-2.51733E-1,2.9476364E0,1.6139406E0,1.281128E-2,-2.9576418E-1,8.365021E-1,3.1136415E0],"split_indices":[7,7,1,5,7,3,0,5,6,0,4,3,0,5,7,1,0,6,0,0,1,0,0,0,0,0,0,0,0,0,0,0,0,0,0,0,0],"split_type":[0,0,0,0,0,0,0,0,0,0,0,0,0,0,0,0,0,0,0,0,0,0,0,0,0,0,0,0,0,0,0,0,0,0,0,0,0],"sum_hessian":[1.056E3,1.05E3,6E0,1.013E3,3.7E1,5E0,1E0,7.38E2,2.75E2,2.9E1,8E0,4E0,1E0,7.08E2,3E1,1.5E1,2.6E2,2.7E1,2E0,3E0,5E0,2E0,2E0,6.97E2,1.1E1,1.5E1,1.5E1,1.4E1,1E0,6.1E1,1.99E2,1.1E1,1.6E1,1E0,1E0,1E0,4E0],"tree_param":{"num_deleted":"0","num_feature":"9","num_nodes":"37","size_leaf_vector":"1"}},{"base_weights":[9.477988E-1,-8.84265E-3,1.4444528E2,-1.6714511E0,1.4523668E1,7.859241E1,2.6978125E1,7.807478E0,-2.4866788E0,9.812635E0,3.3573536E1,8.508386E1,2.3067567E0,4.3659863E1,2.85439E-1,-4.0438952E0,2.0769253E0,6.774413E0,3.0464338E1,2.347206E1,4.4434162E1,3.6139934E0,1.056665E1,-4.1561136E-1,1.0013785E1,-4.3459687E-1,3.7957554E0,-3.1785884E-1,-2.7457092E0,-5.1268897E0,4.3107358E-1,1.3841006E0,-2.7776775E-1,5.087561E0,-4.204309E-1,8.8704425E-1,2.5320497E0,4.825907E0,6.91745E-1],"categories":[],"categories_nodes":[],"categories_segments":[],"categories_sizes":[],"default_left":[0,0,0,0,0,0,0,0,0,0,0,0,0,0,0,0,0,0,0,0,0,0,0,0,0,0,0,0,0,0,0,0,0,0,0,0,0,0,0],"id":30,"left_children":[1,3,5,7,9,11,-1,13,15,17,19,21,-1,23,25,27,29,31,33,35,37,-1,-1,-1,-1,-1,-1,-1,-1,-1,-1,-1,-1,-1,-1,-1,-1,-1,-1],"loss_changes":[1.4510162E5,2.5418406E4,3.657336E4,7.314162E3,9.362967E3,1.9994922E2,0E0,2.0213764E4,6.191071E3,5.315135E3,1.2609141E3,1.2181953E3,0E0,3.5523336E4,1.1156883E4,1.3061206E4,2.6675518E4,5.303503E3,7.997841E3,1.26268555E2,9.5765234E2,0E0,0E0,0E0,0E0,0E0,0E0,0E0,0E0,0E0,0E0,0E0,0E0,0E0,0E0,0E0,0E0,0E0,0E0],"parents":[2147483647,0,0,1,1,2,2,3,3,4,4,5,5,7,7,8,8,9,9,10,10,11,11,13,13,14,14,15,15,16,16,17,17,18,18,19,19,20,20],"right_children":[2,4,6,8,10,12,-1,14,16,18,20,22,-1,24,26,28,30,32,34,36,38,-1,-1,-1,-1,-1,-1,-1,-1,-1,-1,-1,-1,-1,-1,-1,-1,-1,-1],"split_conditions":[8.531916E2,6.454919E2,3E0,1.02E2,7.660798E2,1.93E2,2.6978125E1,1E0,1.85E2,1.8E1,7.990157E2,1.17E2,2.3067567E0,1.31E2,2.1E1,1.7816667E2,1.04E2,2.03E2,6.717983E2,1.19E2,3E2,3.6139934E0,1.056665E1,-4.1561136E-1,1.0013785E1,-4.3459687E-1,3.7957554E0,-3.1785884E-1,-2.7457092E0,-5.1268897E0,4.3107358E-1,1.3841006E0,-2.7776775E-1,5.087561E0,-4.204309E-1,8.8704425E-1,2.5320497E0,4.825907E0,6.91745E-1],"split_indices":[7,7,1,3,7,3,0,1,5,0,7,3,0,5,0,5,3,3,7,4,3,0,0,0,0,0,0,0,0,0,0,0,0,0,0,0,0,0,0],"split_type":[0,0,0,0,0,0,0,0,0,0,0,0,0,0,0,0,0,0,0,0,0,0,0,0,0,0,0,0,0,0,0,0,0,0,0,0,0,0,0],"sum_hessian":[1.056E3,1.05E3,6E0,9.43E2,1.07E2,5E0,1E0,7.4E1,8.69E2,8.7E1,2E1,4E0,1E0,1.2E1,6.2E1,6.48E2,2.21E2,7.7E1,1E1,1.2E1,8E0,2E0,2E0,7E0,5E0,5.6E1,6E0,6.26E2,2.2E1,8E0,2.13E2,4.4E1,3.3E1,6E0,4E0,2E0,1E1,7E0,1E0],"tree_param":{"num_deleted":"0","num_feature":"9","num_nodes":"39","size_leaf_vector":"1"}},{"base_weights":[9.129753E-1,1.0983904E-2,1.3621011E2,-8.6750233E-1,2.3452408E1,7.348106E1,2.5629225E1,-4.6744456E0,1.2991477E0,1.7525242E1,4.06038E1,7.94116E1,2.1914184E0,-1.9646778E0,-1.0772021E1,3.8054109E0,-5.7555165E0,2.788139E1,1.3161137E1,5.6577164E1,2.3187592E1,3.373059E0,9.862207E0,-7.733342E-1,2.365375E-1,-6.067446E-1,-1.617417E0,1.0426971E0,-1.556171E-1,-1.6491772E0,3.5262197E-1,1.2109451E0,3.4922662E0,7.386796E-1,1.8788891E0,1.4904785E0,6.5499697E0,5.533814E-1,2.5611584E0],"categories":[],"categories_nodes":[],"categories_segments":[],"categories_sizes":[],"default_left":[0,0,0,0,0,0,0,0,0,0,0,0,0,0,0,0,0,0,0,0,0,0,0,0,0,0,0,0,0,0,0,0,0,0,0,0,0,0,0],"id":31,"left_children":[1,3,5,7,9,11,-1,13,15,17,19,21,-1,23,25,27,29,31,33,35,37,-1,-1,-1,-1,-1,-1,-1,-1,-1,-1,-1,-1,-1,-1,-1,-1,-1,-1],"loss_changes":[1.2899147E5,2.1663555E4,3.3895844E4,8.369863E3,3.1514531E3,9.467578E1,0E0,6.0593057E3,1.1461409E4,9.889092E2,1.1918701E3,1.0611855E3,0E0,6.4128193E3,2.7737393E3,1.6986201E4,1.699884E4,4.65542E2,6.086316E2,5.1103418E2,1.1502612E2,0E0,0E0,0E0,0E0,0E0,0E0,0E0,0E0,0E0,0E0,0E0,0E0,0E0,0E0,0E0,0E0,0E0,0E0],"parents":[2147483647,0,0,1,1,2,2,3,3,4,4,5,5,7,7,8,8,9,9,10,10,11,11,13,13,14,14,15,15,16,16,17,17,18,18,19,19,20,20],"right_children":[2,4,6,8,10,12,-1,14,16,18,20,22,-1,24,26,28,30,32,34,36,38,-1,-1,-1,-1,-1,-1,-1,-1,-1,-1,-1,-1,-1,-1,-1,-1,-1,-1],"split_conditions":[8.531916E2,7.280172E2,3E0,1.37E2,7.990157E2,1.93E2,2.5629225E1,9E0,2.18E2,1.7554167E2,1.53E2,1.17E2,2.1914184E0,1.18666664E2,1.24E2,1.4E1,1.7741667E2,1.6370833E2,7.660798E2,1.8470833E2,1E0,3.373059E0,9.862207E0,-7.733342E-1,2.365375E-1,-6.067446E-1,-1.617417E0,1.0426971E0,-1.556171E-1,-1.6491772E0,3.5262197E-1,1.2109451E0,3.4922662E0,7.386796E-1,1.8788891E0,1.4904785E0,6.5499697E0,5.533814E-1,2.5611584E0],"split_indices":[7,7,1,5,7,3,0,0,3,6,4,3,0,5,3,0,6,6,7,6,1,0,0,0,0,0,0,0,0,0,0,0,0,0,0,0,0,0,0],"split_type":[0,0,0,0,0,0,0,0,0,0,0,0,0,0,0,0,0,0,0,0,0,0,0,0,0,0,0,0,0,0,0,0,0,0,0,0,0,0,0],"sum_hessian":[1.056E3,1.05E3,6E0,1.013E3,3.7E1,5E0,1E0,3.67E2,6.46E2,2.9E1,8E0,4E0,1E0,2.55E2,1.12E2,4.77E2,1.69E2,7E0,2.2E1,3E0,5E0,2E0,2E0,1.09E2,1.46E2,6.1E1,5.1E1,2.13E2,2.64E2,7.8E1,9.1E1,3E0,4E0,1.2E1,1E1,1E0,2E0,1E0,4E0],"tree_param":{"num_deleted":"0","num_feature":"9","num_nodes":"39","size_leaf_vector":"1"}},{"base_weights":[8.7500155E-1,2.444988E-2,1.2845425E2,-1.1452113E0,1.5260911E1,6.870408E1,2.4347767E1,-5.7152567E0,5.5493903E-1,1.1208177E1,3.372717E1,7.411751E1,2.0818481E0,-6.5432515E0,2.573702E1,7.6367154E0,-2.4168496E0,3.191651E0,1.5431882E1,4.473894E1,2.1252441E1,3.1481893E0,9.204728E0,-5.471013E-1,-3.0219994E0,-1.0460495E0,5.5500283E0,3.2751662E-1,1.0516536E1,-1.0026369E0,3.4556232E-2,-8.324537E-1,8.750267E-1,4.082254E0,1.2353079E0,2.1258621E0,6.1133056E0,4.7957155E-1,2.29183E0],"categories":[],"categories_nodes":[],"categories_segments":[],"categories_sizes":[],"default_left":[0,0,0,0,0,0,0,0,0,0,0,0,0,0,0,0,0,0,0,0,0,0,0,0,0,0,0,0,0,0,0,0,0,0,0,0,0,0,0],"id":32,"left_children":[1,3,5,7,9,11,-1,13,15,17,19,21,-1,23,25,27,29,31,33,35,37,-1,-1,-1,-1,-1,-1,-1,-1,-1,-1,-1,-1,-1,-1,-1,-1,-1,-1],"loss_changes":[1.14694836E5,1.874787E4,3.1380773E4,7.5942314E3,5.2348945E3,1.2333984E1,0E0,7.06962E3,1.502393E4,2.083893E3,8.349824E2,9.2441406E2,0E0,6.4099297E3,8.1220527E3,8.94099E4,1.057684E4,1.5451656E3,2.7008008E3,1.0100293E3,1.0940723E2,0E0,0E0,0E0,0E0,0E0,0E0,0E0,0E0,0E0,0E0,0E0,0E0,0E0,0E0,0E0,0E0,0E0,0E0],"parents":[2147483647,0,0,1,1,2,2,3,3,4,4,5,5,7,7,8,8,9,9,10,10,11,11,13,13,14,14,15,15,16,16,17,17,18,18,19,19,20,20],"right_children":[2,4,6,8,10,12,-1,14,16,18,20,22,-1,24,26,28,30,32,34,36,38,-1,-1,-1,-1,-1,-1,-1,-1,-1,-1,-1,-1,-1,-1,-1,-1,-1,-1],"split_conditions":[8.531916E2,6.806382E2,3E0,6E0,7.8525275E2,1.93E2,2.4347767E1,2.32E2,1.1E1,1.3E2,1.53E2,1.17E2,2.0818481E0,1.9083333E2,1.555E2,1.7666667E2,2E0,6.9600696E2,1.4908333E2,1.8704167E2,1.04E2,3.1481893E0,9.204728E0,-5.471013E-1,-3.0219994E0,-1.0460495E0,5.5500283E0,3.2751662E-1,1.0516536E1,-1.0026369E0,3.4556232E-2,-8.324537E-1,8.750267E-1,4.082254E0,1.2353079E0,2.1258621E0,6.1133056E0,4.7957155E-1,2.29183E0],"split_indices":[7,7,1,0,7,3,0,4,0,4,4,3,0,5,5,5,1,7,6,6,3,0,0,0,0,0,0,0,0,0,0,0,0,0,0,0,0,0,0],"split_type":[0,0,0,0,0,0,0,0,0,0,0,0,0,0,0,0,0,0,0,0,0,0,0,0,0,0,0,0,0,0,0,0,0,0,0,0,0,0,0],"sum_hessian":[1.056E3,1.05E3,6E0,9.76E2,7.4E1,5E0,1E0,2.64E2,7.12E2,6.2E1,1.2E1,4E0,1E0,2.58E2,6E0,2.1E2,5.02E2,2.2E1,4E1,5E0,7E0,2E0,2E0,2.48E2,1E1,3E0,3E0,2.02E2,8E0,1.33E2,3.69E2,7E0,1.5E1,3E0,3.7E1,3E0,2E0,1E0,6E0],"tree_param":{"num_deleted":"0","num_feature":"9","num_nodes":"39","size_leaf_vector":"1"}},{"base_weights":[8.4990835E-1,4.7867335E-2,1.2114922E2,-1.4005939E0,1.0887578E1,6.423948E0,2.3130384E1,-8.955671E-1,-2.3170292E1,-3.793718E-1,1.8008537E1,-1.3437428E0,2.4174213E1,1.5317349E1,-3.3127228E1,-8.794622E0,7.403143E0,6.6557474E0,3.1117357E1,-7.128162E-1,3.2517295E-2,-7.2418755E-1,2.4770777E1,-2.6862245E0,9.201786E0,-1.6594616E0,-3.6937675E0,-7.586375E-2,-1.9969138E0,4.3321767E0,2.6048508E-1,-9.0784454E-1,1.5733204E0,4.7596793E0,2.1581085E0],"categories":[],"categories_nodes":[],"categories_segments":[],"categories_sizes":[],"default_left":[0,0,0,0,0,0,0,0,0,0,0,0,0,0,0,0,0,0,0,0,0,0,0,0,0,0,0,0,0,0,0,0,0,0,0],"id":33,"left_children":[1,3,5,7,9,-1,-1,11,13,15,17,19,21,23,25,27,29,31,33,-1,-1,-1,-1,-1,-1,-1,-1,-1,-1,-1,-1,-1,-1,-1,-1],"loss_changes":[1.0197883E5,1.6516895E4,2.902325E4,1.0181941E4,9.955538E3,0E0,0E0,1.0234469E4,8.555018E3,3.2742065E3,1.1103338E4,8.623079E3,1.14154664E5,1.864779E4,4.5797852E2,2.1400083E3,4.3682026E3,6.1415444E3,4.4731445E3,0E0,0E0,0E0,0E0,0E0,0E0,0E0,0E0,0E0,0E0,0E0,0E0,0E0,0E0,0E0,0E0],"parents":[2147483647,0,0,1,1,2,2,3,3,4,4,7,7,8,8,9,9,10,10,11,11,12,12,13,13,14,14,15,15,16,16,17,17,18,18],"right_children":[2,4,6,8,10,-1,-1,12,14,16,18,20,22,24,26,28,30,32,34,-1,-1,-1,-1,-1,-1,-1,-1,-1,-1,-1,-1,-1,-1,-1,-1],"split_conditions":[8.531916E2,6.323163E2,3E0,3.78E2,2.0983333E2,6.423948E0,2.3130384E1,2.585E2,3.8471115E2,6.806382E2,2E0,3.0940536E2,4E0,3.7526093E2,4.6749023E2,1.4E1,6.853522E2,6.9078613E2,6.717983E2,-7.128162E-1,3.2517295E-2,-7.2418755E-1,2.4770777E1,-2.6862245E0,9.201786E0,-1.6594616E0,-3.6937675E0,-7.586375E-2,-1.9969138E0,4.3321767E0,2.6048508E-1,-9.0784454E-1,1.5733204E0,4.7596793E0,2.1581085E0],"split_indices":[7,7,1,5,5,0,0,6,7,7,1,7,1,7,7,0,7,7,7,0,0,0,0,0,0,0,0,0,0,0,0,0,0,0,0],"split_type":[0,0,0,0,0,0,0,0,0,0,0,0,0,0,0,0,0,0,0,0,0,0,0,0,0,0,0,0,0,0,0,0,0,0,0],"sum_hessian":[1.056E3,1.05E3,6E0,9.27E2,1.23E2,5E0,1E0,9.07E2,2E1,4.8E1,7.5E1,8.92E2,1.5E1,4E0,1.6E1,2.3E1,2.5E1,4.1E1,3.4E1,1.99E2,6.93E2,1.4E1,1E0,3E0,1E0,4E0,1.2E1,1.4E1,9E0,2E0,2.3E1,1.5E1,2.6E1,1.1E1,2.3E1],"tree_param":{"num_deleted":"0","num_feature":"9","num_nodes":"35","size_leaf_vector":"1"}},{"base_weights":[8.256426E-1,7.603213E-2,1.1325635E2,-1.2341026E0,9.880299E0,5.888619E1,2.1973866E1,-7.802765E-1,-2.0797913E1,-2.900129E-1,1.6307468E1,2.5100465E0,6.950394E1,-1.2101302E0,2.32597E1,1.5088724E1,-3.01294E1,1.5694551E1,-3.7917461E0,6.0060163E0,2.8203283E1,8.162818E0,1.6565613E0,-3.032313E-3,-8.134457E-1,-6.56597E-1,2.353224E1,-2.4847581E0,8.741697E0,-1.5267054E0,-3.3528042E0,-9.1433746E-1,3.7393568E0,1.2934166E0,-8.900102E-1,-8.2273406E-1,1.4218153E0,5.519028E-1,3.367724E0],"categories":[],"categories_nodes":[],"categories_segments":[],"categories_sizes":[],"default_left":[0,0,0,0,0,0,0,0,0,0,0,0,0,0,0,0,0,0,0,0,0,0,0,0,0,0,0,0,0,0,0,0,0,0,0,0,0,0,0],"id":34,"left_children":[1,3,5,7,9,11,-1,13,15,17,19,-1,21,23,25,27,29,31,33,35,37,-1,-1,-1,-1,-1,-1,-1,-1,-1,-1,-1,-1,-1,-1,-1,-1,-1,-1],"loss_changes":[8.907454E4,1.3512192E4,2.7586648E4,8.223084E3,8.1101543E3,4.0778906E2,0E0,9.411123E3,7.487004E3,2.80222E3,9.143969E3,0E0,1.215127E3,7.295001E3,1.0274371E5,1.6614715E4,3.468252E2,5.1925303E3,3.6182332E3,5.0262017E3,4.160174E3,0E0,0E0,0E0,0E0,0E0,0E0,0E0,0E0,0E0,0E0,0E0,0E0,0E0,0E0,0E0,0E0,0E0,0E0],"parents":[2147483647,0,0,1,1,2,2,3,3,4,4,5,5,7,7,8,8,9,9,10,10,12,12,13,13,14,14,15,15,16,16,17,17,18,18,19,19,20,20],"right_children":[2,4,6,8,10,12,-1,14,16,18,20,-1,22,24,26,28,30,32,34,36,38,-1,-1,-1,-1,-1,-1,-1,-1,-1,-1,-1,-1,-1,-1,-1,-1,-1,-1],"split_conditions":[8.531916E2,6.323163E2,3E0,3.78E2,2.0983333E2,1.17E2,2.1973866E1,2.585E2,3.8471115E2,1.5070833E2,2E0,2.5100465E0,1.93E2,2.18E2,4E0,3.7526093E2,4.6749023E2,1.7016667E2,1.18E2,6.9078613E2,1.8470833E2,8.162818E0,1.6565613E0,-3.032313E-3,-8.134457E-1,-6.56597E-1,2.353224E1,-2.4847581E0,8.741697E0,-1.5267054E0,-3.3528042E0,-9.1433746E-1,3.7393568E0,1.2934166E0,-8.900102E-1,-8.2273406E-1,1.4218153E0,5.519028E-1,3.367724E0],"split_indices":[7,7,1,5,5,3,0,6,7,6,1,0,3,3,1,7,7,5,4,7,6,0,0,0,0,0,0,0,0,0,0,0,0,0,0,0,0,0,0],"split_type":[0,0,0,0,0,0,0,0,0,0,0,0,0,0,0,0,0,0,0,0,0,0,0,0,0,0,0,0,0,0,0,0,0,0,0,0,0,0,0],"sum_hessian":[1.056E3,1.05E3,6E0,9.27E2,1.23E2,5E0,1E0,9.07E2,2E1,4.8E1,7.5E1,2E0,3E0,8.92E2,1.5E1,4E0,1.6E1,8E0,4E1,4.1E1,3.4E1,2E0,1E0,7.63E2,1.29E2,1.4E1,1E0,3E0,1E0,4E0,1.2E1,4E0,4E0,9E0,3.1E1,1.5E1,2.6E1,7E0,2.7E1],"tree_param":{"num_deleted":"0","num_feature":"9","num_nodes":"39","size_leaf_vector":"1"}},{"base_weights":[8.050357E-1,9.810133E-2,1.0683118E2,-2.4335759E0,4.2917433E0,5.505247E1,2.0875172E1,-1.0019722E0,-1.0673416E1,3.0587809E1,2.2847471E0,2.3427124E0,6.500836E1,-1.357341E0,3.8715435E1,1.5828549E1,-1.3563714E1,1.1815512E1,1.1457727E2,-7.502639E0,5.240488E0,7.618628E0,1.5737305E0,-1.0161467E0,-3.115564E-2,-4.007538E-1,5.0398064E0,-3.684311E-2,4.0216126E0,-4.4245902E-1,-2.3025017E0,6.205168E0,1.6840748E-1,1.8232672E0,1.7272945E1,1.6658858E0,-1.4603046E0,7.3186975E0,3.259216E-1],"categories":[],"categories_nodes":[],"categories_segments":[],"categories_sizes":[],"default_left":[0,0,0,0,0,0,0,0,0,0,0,0,0,0,0,0,0,0,0,0,0,0,0,0,0,0,0,0,0,0,0,0,0,0,0,0,0,0,0],"id":35,"left_children":[1,3,5,7,9,11,-1,13,15,17,19,-1,21,23,25,27,29,31,33,35,37,-1,-1,-1,-1,-1,-1,-1,-1,-1,-1,-1,-1,-1,-1,-1,-1,-1,-1],"loss_changes":[7.92154E4,1.1168856E4,2.5448898E4,7.7276025E3,2.082945E4,3.661914E2,0E0,7.956574E3,7.644757E3,4.2793113E4,1.0714111E4,0E0,1.0040254E3,5.116048E3,2.6975557E3,3.9648682E3,7.5073076E3,1.2110649E4,2.4863914E4,1.4997127E4,3.7993688E4,0E0,0E0,0E0,0E0,0E0,0E0,0E0,0E0,0E0,0E0,0E0,0E0,0E0,0E0,0E0,0E0,0E0,0E0],"parents":[2147483647,0,0,1,1,2,2,3,3,4,4,5,5,7,7,8,8,9,9,10,10,12,12,13,13,14,14,15,15,16,16,17,17,18,18,19,19,20,20],"right_children":[2,4,6,8,10,12,-1,14,16,18,20,-1,22,24,26,28,30,32,34,36,38,-1,-1,-1,-1,-1,-1,-1,-1,-1,-1,-1,-1,-1,-1,-1,-1,-1,-1],"split_conditions":[8.531916E2,1.6716667E2,3E0,1.72E2,1.5070833E2,1.17E2,2.0875172E1,1.7E2,1.05E2,1.49875E2,1.65375E2,2.3427124E0,1.93E2,1.13166664E2,1.01E2,6E0,1E1,1.4141667E2,1.8E1,1.16E2,1.6641667E2,7.618628E0,1.5737305E0,-1.0161467E0,-3.115564E-2,-4.007538E-1,5.0398064E0,-3.684311E-2,4.0216126E0,-4.4245902E-1,-2.3025017E0,6.205168E0,1.6840748E-1,1.8232672E0,1.7272945E1,1.6658858E0,-1.4603046E0,7.3186975E0,3.259216E-1],"split_indices":[7,5,1,3,6,3,0,3,4,6,6,0,3,5,4,1,0,6,0,3,6,0,0,0,0,0,0,0,0,0,0,0,0,0,0,0,0,0,0],"split_type":[0,0,0,0,0,0,0,0,0,0,0,0,0,0,0,0,0,0,0,0,0,0,0,0,0,0,0,0,0,0,0,0,0,0,0,0,0,0,0],"sum_hessian":[1.056E3,1.05E3,6E0,6.55E2,3.95E2,5E0,1E0,5.59E2,9.6E1,2.7E1,3.68E2,2E0,3E0,5.55E2,4E0,9E0,8.7E1,2.3E1,4E0,8.5E1,2.83E2,2E0,1E0,5.8E1,4.97E2,1E0,3E0,6E0,3E0,4.5E1,4.2E1,3E0,2E1,2E0,2E0,1.9E1,6.6E1,7E0,2.76E2],"tree_param":{"num_deleted":"0","num_feature":"9","num_nodes":"39","size_leaf_vector":"1"}},{"base_weights":[7.9128885E-1,1.2459158E-1,1.00778076E2,-1.0274715E0,8.745479E0,5.1469727E1,1.983141E1,-6.1153287E-1,-1.8962942E1,-3.8396344E-1,1.4516495E1,2.1865318E0,6.0805603E1,-1.0246304E0,2.2482693E1,1.4570496E1,-2.771025E1,-7.9838443E0,6.646079E0,5.2716293E0,2.5195576E1,7.110718E0,1.495044E0,-6.2356013E-1,4.7856677E-2,-5.8042353E-1,2.233933E1,-2.322846E0,8.288316E0,-1.3646891E0,-3.0987678E0,7.998685E-1,-1.2610756E0,3.9438121E0,2.2701538E-1,2.1055496E0,-1.7437673E-1,3.6492321E0,1.3761879E0],"categories":[],"categories_nodes":[],"categories_segments":[],"categories_sizes":[],"default_left":[0,0,0,0,0,0,0,0,0,0,0,0,0,0,0,0,0,0,0,0,0,0,0,0,0,0,0,0,0,0,0,0,0,0,0,0,0,0,0],"id":36,"left_children":[1,3,5,7,9,11,-1,13,15,17,19,-1,21,23,25,27,29,31,33,35,37,-1,-1,-1,-1,-1,-1,-1,-1,-1,-1,-1,-1,-1,-1,-1,-1,-1,-1],"loss_changes":[7.044803E4,1.0447314E4,2.3458203E4,6.9113354E3,6.538657E3,3.2876465E2,0E0,8.685509E3,6.563627E3,2.671008E3,7.3704043E3,0E0,8.264385E2,6.9979575E3,9.222693E4,1.4835983E4,3.6067188E2,1.8756637E3,3.6413533E3,4.6873794E3,4.0185215E3,0E0,0E0,0E0,0E0,0E0,0E0,0E0,0E0,0E0,0E0,0E0,0E0,0E0,0E0,0E0,0E0,0E0,0E0],"parents":[2147483647,0,0,1,1,2,2,3,3,4,4,5,5,7,7,8,8,9,9,10,10,12,12,13,13,14,14,15,15,16,16,17,17,18,18,19,19,20,20],"right_children":[2,4,6,8,10,12,-1,14,16,18,20,-1,22,24,26,28,30,32,34,36,38,-1,-1,-1,-1,-1,-1,-1,-1,-1,-1,-1,-1,-1,-1,-1,-1,-1,-1],"split_conditions":[8.531916E2,6.323163E2,3E0,3.78E2,2.0983333E2,1.17E2,1.983141E1,2.585E2,3.8471115E2,6.806382E2,2E0,2.1865318E0,1.93E2,3.0940536E2,4E0,3.7526093E2,1.3E1,1E0,6.853522E2,1.7904167E2,7.017617E2,7.110718E0,1.495044E0,-6.2356013E-1,4.7856677E-2,-5.8042353E-1,2.233933E1,-2.322846E0,8.288316E0,-1.3646891E0,-3.0987678E0,7.998685E-1,-1.2610756E0,3.9438121E0,2.2701538E-1,2.1055496E0,-1.7437673E-1,3.6492321E0,1.3761879E0],"split_indices":[7,7,1,5,5,3,0,6,7,7,1,0,3,7,1,7,0,1,7,6,7,0,0,0,0,0,0,0,0,0,0,0,0,0,0,0,0,0,0],"split_type":[0,0,0,0,0,0,0,0,0,0,0,0,0,0,0,0,0,0,0,0,0,0,0,0,0,0,0,0,0,0,0,0,0,0,0,0,0,0,0],"sum_hessian":[1.056E3,1.05E3,6E0,9.27E2,1.23E2,5E0,1E0,9.07E2,2E1,4.8E1,7.5E1,2E0,3E0,8.92E2,1.5E1,4E0,1.6E1,2.3E1,2.5E1,4.1E1,3.4E1,2E0,1E0,1.99E2,6.93E2,1.4E1,1E0,3E0,1E0,4E0,1.2E1,5E0,1.8E1,2E0,2.3E1,1.2E1,2.9E1,1.6E1,1.8E1],"tree_param":{"num_deleted":"0","num_feature":"9","num_nodes":"39","size_leaf_vector":"1"}},{"base_weights":[7.726888E-1,1.43869E-1,9.507511E1,-3.1970498E-1,1.9181734E1,4.812148E1,1.8839844E1,-4.4169455E0,1.1037399E0,2.5357504E1,9.016435E0,7.0886965E0,2.939099E0,-5.1837616E0,2.4586254E1,1.7191658E1,9.5311396E-2,1.5235016E1,3.8002064E1,1.0510254E-1,1.6425028E1,-4.205998E-1,-2.6845527E0,5.205177E0,-9.0258217E-1,5.187149E-1,9.435644E0,-6.1240595E-2,2.153808E0,2.7072053E0,6.2945646E-1,4.564481E0,1.514439E0,-3.5788777E-1,2.841812E-1,2.005659E0,-8.6639404E-2],"categories":[],"categories_nodes":[],"categories_segments":[],"categories_sizes":[],"default_left":[0,0,0,0,0,0,0,0,0,0,0,0,0,0,0,0,0,0,0,0,0,0,0,0,0,0,0,0,0,0,0,0,0,0,0,0,0],"id":37,"left_children":[1,3,5,7,9,11,-1,13,15,17,19,-1,-1,21,23,25,27,29,31,33,35,-1,-1,-1,-1,-1,-1,-1,-1,-1,-1,-1,-1,-1,-1,-1,-1],"loss_changes":[6.266561E4,9.281689E3,2.1607074E4,5.99454E3,1.3408291E3,4.750127E2,0E0,6.0210835E3,1.2376901E4,1.3409531E3,7.2449854E2,0E0,0E0,5.3727305E3,6.932019E3,4.1195195E4,1.0924315E4,8.878777E2,3.5690918E2,7.066241E1,3.9414624E2,0E0,0E0,0E0,0E0,0E0,0E0,0E0,0E0,0E0,0E0,0E0,0E0,0E0,0E0,0E0,0E0],"parents":[2147483647,0,0,1,1,2,2,3,3,4,4,5,5,7,7,8,8,9,9,10,10,13,13,14,14,15,15,16,16,17,17,18,18,19,19,20,20],"right_children":[2,4,6,8,10,12,-1,14,16,18,20,-1,-1,22,24,26,28,30,32,34,36,-1,-1,-1,-1,-1,-1,-1,-1,-1,-1,-1,-1,-1,-1,-1,-1],"split_conditions":[8.531916E2,7.579692E2,3E0,6E0,1.74E2,9E0,1.8839844E1,2.32E2,7E0,7.990157E2,2.52E2,7.0886965E0,2.939099E0,1.9083333E2,2.51E2,1.3966667E2,2.585E2,1.7554167E2,1.53E2,7.660798E2,1.7E1,-4.205998E-1,-2.6845527E0,5.205177E0,-9.0258217E-1,5.187149E-1,9.435644E0,-6.1240595E-2,2.153808E0,2.7072053E0,6.2945646E-1,4.564481E0,1.514439E0,-3.5788777E-1,2.841812E-1,2.005659E0,-8.6639404E-2],"split_indices":[7,7,1,0,4,0,0,4,0,7,4,0,0,5,4,5,6,6,4,7,0,0,0,0,0,0,0,0,0,0,0,0,0,0,0,0,0],"split_type":[0,0,0,0,0,0,0,0,0,0,0,0,0,0,0,0,0,0,0,0,0,0,0,0,0,0,0,0,0,0,0,0,0,0,0,0,0],"sum_hessian":[1.056E3,1.05E3,6E0,1.026E3,2.4E1,5E0,1E0,2.64E2,7.62E2,1.4E1,1E1,1E0,4E0,2.58E2,6E0,4.4E1,7.18E2,9E0,5E0,5E0,5E0,2.48E2,1E1,3E0,3E0,3.9E1,5E0,6.96E2,2.2E1,3E0,6E0,3E0,2E0,2E0,3E0,4E0,1E0],"tree_param":{"num_deleted":"0","num_feature":"9","num_nodes":"37","size_leaf_vector":"1"}},{"base_weights":[7.459105E-1,1.527941E-1,8.969154E1,-1.6253772E0,4.40844E0,4.4980633E1,1.7897852E1,-1.0680293E0,-2.856697E1,3.124579E1,2.3502045E0,6.734259E0,2.7039723E0,-3.9060423E-1,-1.738284E1,-1.8503977E0,-3.2534874E1,5.2216145E1,-4.8465137E0,8.1960964E-1,3.2356915E1,-1.7560929E-1,1.6311797E0,-3.7524545E0,1.3275795E-1,-3.2500076E-1,4.7441103E-2,-3.4821534E0,-2.547493E-1,8.213611E0,-1.3664882E-1,-3.1596568E0,5.918578E0,-6.387415E-1,8.7302077E-1,1.1626888E1,-1.2834762E0],"categories":[],"categories_nodes":[],"categories_segments":[],"categories_sizes":[],"default_left":[0,0,0,0,0,0,0,0,0,0,0,0,0,0,0,0,0,0,0,0,0,0,0,0,0,0,0,0,0,0,0,0,0,0,0,0,0],"id":38,"left_children":[1,3,5,7,9,11,-1,13,15,17,19,-1,-1,21,23,25,27,29,31,33,35,-1,-1,-1,-1,-1,-1,-1,-1,-1,-1,-1,-1,-1,-1,-1,-1],"loss_changes":[5.574845E4,7.960364E3,1.9894145E4,1.1111244E4,1.705022E4,5.862383E2,0E0,8.0391104E3,1.5299287E3,1.6904174E4,1.3246704E4,0E0,0E0,1.5993503E4,1.0978748E4,1.1303316E1,8.0271387E2,2.2556895E4,1.7285873E4,1.5791039E4,5.4582E4,0E0,0E0,0E0,0E0,0E0,0E0,0E0,0E0,0E0,0E0,0E0,0E0,0E0,0E0,0E0,0E0],"parents":[2147483647,0,0,1,1,2,2,3,3,4,4,5,5,7,7,8,8,9,9,10,10,13,13,14,14,15,15,16,16,17,17,18,18,19,19,20,20],"right_children":[2,4,6,8,10,12,-1,14,16,18,20,-1,-1,22,24,26,28,30,32,34,36,-1,-1,-1,-1,-1,-1,-1,-1,-1,-1,-1,-1,-1,-1,-1,-1],"split_conditions":[8.531916E2,1.85E2,3E0,2.88E2,1.9083333E2,9E0,1.7897852E1,1.79E2,3E0,1.7E1,6E0,6.734259E0,2.7039723E0,1.6716667E2,4.2062314E2,1E0,1.845E2,1.93E2,2.36E2,5.476322E2,1.36E2,-1.7560929E-1,1.6311797E0,-3.7524545E0,1.3275795E-1,-3.2500076E-1,4.7441103E-2,-3.4821534E0,-2.547493E-1,8.213611E0,-1.3664882E-1,-3.1596568E0,5.918578E0,-6.387415E-1,8.7302077E-1,1.1626888E1,-1.2834762E0],"split_indices":[7,5,1,3,5,0,0,5,0,0,1,0,0,5,7,1,6,3,3,7,3,0,0,0,0,0,0,0,0,0,0,0,0,0,0,0,0],"split_type":[0,0,0,0,0,0,0,0,0,0,0,0,0,0,0,0,0,0,0,0,0,0,0,0,0,0,0,0,0,0,0,0,0,0,0,0,0],"sum_hessian":[1.056E3,1.05E3,6E0,7.41E2,3.09E2,5E0,1E0,7.27E2,1.4E1,2.1E1,2.88E2,1E0,4E0,6.99E2,2.8E1,2E0,1.2E1,1.3E1,8E0,2.75E2,1.3E1,6.47E2,5.2E1,1.3E1,1.5E1,1E0,1E0,1.1E1,1E0,8E0,5E0,6E0,2E0,1.44E2,1.31E2,4E0,9E0],"tree_param":{"num_deleted":"0","num_feature":"9","num_nodes":"37","size_leaf_vector":"1"}},{"base_weights":[7.115967E-1,1.5201238E-1,8.4627525E1,-2.552403E-1,1.6875872E1,4.2055603E1,1.7002954E1,7.7228556E0,-8.91879E-1,1.0768705E1,2.6536533E1,6.3975463E0,2.4876537E0,3.7998913E1,1.4523621E0,-2.436186E0,2.8420095E0,2.4386857E0,6.108612E0,4.156668E1,1.2093678E1,-2.9684725E-1,8.628894E0,-2.676303E-1,3.545382E0,-1.5610334E-1,-1.7460816E0,-4.360429E0,4.5517167E-1,-6.540731E-1,8.761897E-1,8.1718445E-1,4.9974346E0,1.4531409E0,-4.7485353E-3],"categories":[],"categories_nodes":[],"categories_segments":[],"categories_sizes":[],"default_left":[0,0,0,0,0,0,0,0,0,0,0,0,0,0,0,0,0,0,0,0,0,0,0,0,0,0,0,0,0,0,0,0,0,0,0],"id":39,"left_children":[1,3,5,7,9,11,-1,13,15,17,19,-1,-1,21,23,25,27,-1,29,31,33,-1,-1,-1,-1,-1,-1,-1,-1,-1,-1,-1,-1,-1,-1],"loss_changes":[4.962178E4,7.162497E3,1.8299402E4,5.22319E3,1.1892173E3,6.678887E2,0E0,1.4373094E4,5.4964136E3,9.2988184E2,1.4510098E3,0E0,0E0,2.5974258E4,9.079245E3,8.835065E3,2.2353744E4,0E0,5.271815E2,7.147075E2,1.782713E2,0E0,0E0,0E0,0E0,0E0,0E0,0E0,0E0,0E0,0E0,0E0,0E0,0E0,0E0],"parents":[2147483647,0,0,1,1,2,2,3,3,4,4,5,5,7,7,8,8,9,9,10,10,13,13,14,14,15,15,16,16,18,18,19,19,20,20],"right_children":[2,4,6,8,10,12,-1,14,16,18,20,-1,-1,22,24,26,28,-1,30,32,34,-1,-1,-1,-1,-1,-1,-1,-1,-1,-1,-1,-1,-1,-1],"split_conditions":[8.531916E2,7.579692E2,3E0,1.02E2,7.990157E2,9E0,1.7002954E1,1E0,1.85E2,1.7554167E2,1.53E2,6.3975463E0,2.4876537E0,1.31E2,2.1E1,2.48E2,1.04E2,2.4386857E0,1.19E2,1.8470833E2,3E2,-2.9684725E-1,8.628894E0,-2.676303E-1,3.545382E0,-1.5610334E-1,-1.7460816E0,-4.360429E0,4.5517167E-1,-6.540731E-1,8.761897E-1,8.1718445E-1,4.9974346E0,1.4531409E0,-4.7485353E-3],"split_indices":[7,7,1,3,7,0,0,1,5,6,4,0,0,5,0,3,3,0,4,6,3,0,0,0,0,0,0,0,0,0,0,0,0,0,0],"split_type":[0,0,0,0,0,0,0,0,0,0,0,0,0,0,0,0,0,0,0,0,0,0,0,0,0,0,0,0,0,0,0,0,0,0,0],"sum_hessian":[1.056E3,1.05E3,6E0,1.026E3,2.4E1,5E0,1E0,7.5E1,9.51E2,1.6E1,8E0,1E0,4E0,1.2E1,6.3E1,6.73E2,2.78E2,3E0,1.3E1,3E0,5E0,7E0,5E0,5.7E1,6E0,6.37E2,3.6E1,9E0,2.69E2,2E0,1.1E1,1E0,2E0,4E0,1E0],"tree_param":{"num_deleted":"0","num_feature":"9","num_nodes":"35","size_leaf_vector":"1"}},{"base_weights":[6.7980546E-1,1.5177245E-1,7.9863075E1,-2.2406864E-1,1.5585254E1,3.933089E1,1.6152807E1,-4.7250414E0,8.033027E-1,2.1085894E1,6.6675415E0,6.077667E0,2.2886403E0,-6.0914222E-2,-9.150581E0,3.5059254E0,-2.0881515E0,1.2308185E1,3.220109E1,-1.3246969E0,1.3548523E1,-1.1561205E-1,4.0491554E-1,-1.8128502E0,-5.4811114E-1,2.7027985E-1,6.0211334E0,-1.7635258E0,5.1614284E-3,-1.12701416E-1,1.8227129E0,3.8863664E0,1.2583965E0,-4.506409E-1,1.3927613E-1,1.6937293E0,-1.6976623E-1],"categories":[],"categories_nodes":[],"categories_segments":[],"categories_sizes":[],"default_left":[0,0,0,0,0,0,0,0,0,0,0,0,0,0,0,0,0,0,0,0,0,0,0,0,0,0,0,0,0,0,0,0,0,0,0,0,0],"id":40,"left_children":[1,3,5,7,9,11,-1,13,15,17,19,-1,-1,21,23,25,27,29,31,33,35,-1,-1,-1,-1,-1,-1,-1,-1,-1,-1,-1,-1,-1,-1,-1,-1],"loss_changes":[4.4182508E4,6.099857E3,1.6817383E4,4.752819E3,1.0857363E3,7.250303E2,0E0,3.9419263E3,6.5480654E3,1.0671523E3,6.228866E2,0E0,0E0,4.2781046E2,3.12917E3,1.9556795E4,1.3474113E4,8.1576404E2,2.9514404E2,5.815336E1,3.3874866E2,0E0,0E0,0E0,0E0,0E0,0E0,0E0,0E0,0E0,0E0,0E0,0E0,0E0,0E0,0E0,0E0],"parents":[2147483647,0,0,1,1,2,2,3,3,4,4,5,5,7,7,8,8,9,9,10,10,13,13,14,14,15,15,16,16,17,17,18,18,19,19,20,20],"right_children":[2,4,6,8,10,12,-1,14,16,18,20,-1,-1,22,24,26,28,30,32,34,36,-1,-1,-1,-1,-1,-1,-1,-1,-1,-1,-1,-1,-1,-1,-1,-1],"split_conditions":[8.531916E2,7.579692E2,3E0,1.23833336E2,1.74E2,9E0,1.6152807E1,1.1E2,1.45E2,7.990157E2,2.52E2,6.077667E0,2.2886403E0,1.07E2,1.13166664E2,1.43E2,1.455E2,1.19E2,1.53E2,7.660798E2,1.7E1,-1.1561205E-1,4.0491554E-1,-1.8128502E0,-5.4811114E-1,2.7027985E-1,6.0211334E0,-1.7635258E0,5.1614284E-3,-1.12701416E-1,1.8227129E0,3.8863664E0,1.2583965E0,-4.506409E-1,1.3927613E-1,1.6937293E0,-1.6976623E-1],"split_indices":[7,7,1,5,4,0,0,4,3,7,4,0,0,4,5,3,6,4,4,7,0,0,0,0,0,0,0,0,0,0,0,0,0,0,0,0,0],"split_type":[0,0,0,0,0,0,0,0,0,0,0,0,0,0,0,0,0,0,0,0,0,0,0,0,0,0,0,0,0,0,0,0,0,0,0,0,0],"sum_hessian":[1.056E3,1.05E3,6E0,1.026E3,2.4E1,5E0,1E0,1.9E2,8.36E2,1.4E1,1E1,1E0,4E0,9.3E1,9.7E1,4.32E2,4.04E2,9E0,5E0,5E0,5E0,7.4E1,1.9E1,2.7E1,7E1,4.27E2,5E0,4.8E1,3.56E2,3E0,6E0,3E0,2E0,2E0,3E0,4E0,1E0],"tree_param":{"num_deleted":"0","num_feature":"9","num_nodes":"37","size_leaf_vector":"1"}},{"base_weights":[6.449838E-1,1.4661436E-1,7.537946E1,-3.7774484E0,1.4677452E0,3.6792156E1,1.5345166E1,2.4106565E0,-6.86764E0,7.921123E0,-1.0343865E0,5.7737856E0,2.1055446E0,1.3101872E1,-6.19053E0,-4.2545915E0,-3.4804924E0,1.1536382E0,3.9299614E1,-1.1911403E1,4.687105E-1,7.6259726E-1,1.1333098E1,-1.0599859E0,3.5613396E0,-2.1288238E-1,-9.955444E-1,-8.8530886E-1,6.7885983E-1,6.6910667E0,-2.1069474E0,1.9912583E0,-1.3659654E0,-1.3364786E0,1.7006771E-1],"categories":[],"categories_nodes":[],"categories_segments":[],"categories_sizes":[],"default_left":[0,0,0,0,0,0,0,0,0,0,0,0,0,0,0,0,0,0,0,0,0,0,0,0,0,0,0,0,0,0,0,0,0,0,0],"id":41,"left_children":[1,3,5,7,9,11,-1,13,15,17,19,-1,-1,21,23,25,-1,27,29,31,33,-1,-1,-1,-1,-1,-1,-1,-1,-1,-1,-1,-1,-1,-1],"loss_changes":[3.9357324E4,5.4541387E3,1.5442355E4,5.0839985E3,1.2716041E4,7.6200244E2,0E0,8.265293E3,1.2773183E4,4.6672418E4,9.291935E3,0E0,0E0,2.1089523E4,9.593859E3,1.9541523E3,0E0,1.0322625E4,6.641708E4,4.1109043E3,8.543933E3,0E0,0E0,0E0,0E0,0E0,0E0,0E0,0E0,0E0,0E0,0E0,0E0,0E0,0E0],"parents":[2147483647,0,0,1,1,2,2,3,3,4,4,5,5,7,7,8,8,9,9,10,10,13,13,14,14,15,15,17,17,18,18,19,19,20,20],"right_children":[2,4,6,8,10,12,-1,14,16,18,20,-1,-1,22,24,26,-1,28,30,32,34,-1,-1,-1,-1,-1,-1,-1,-1,-1,-1,-1,-1,-1,-1],"split_conditions":[8.531916E2,6E0,3E0,2E0,1.1E1,9E0,1.5345166E1,3E0,1.6E2,1.4933333E2,1.3633333E2,5.7737856E0,2.1055446E0,2.515E2,2.32E2,1.36E2,-3.4804924E0,1.18666664E2,2.02E2,1.04E2,2.9172095E2,7.6259726E-1,1.1333098E1,-1.0599859E0,3.5613396E0,-2.1288238E-1,-9.955444E-1,-8.8530886E-1,6.7885983E-1,6.6910667E0,-2.1069474E0,1.9912583E0,-1.3659654E0,-1.3364786E0,1.7006771E-1],"split_indices":[7,0,1,0,0,0,0,1,5,5,5,0,0,6,4,5,0,5,3,4,7,0,0,0,0,0,0,0,0,0,0,0,0,0,0],"split_type":[0,0,0,0,0,0,0,0,0,0,0,0,0,0,0,0,0,0,0,0,0,0,0,0,0,0,0,0,0,0,0,0,0,0,0],"sum_hessian":[1.056E3,1.05E3,6E0,2.64E2,7.86E2,5E0,1E0,8.8E1,1.76E2,2.19E2,5.67E2,1E0,4E0,3.9E1,4.9E1,1.62E2,1.4E1,1.81E2,3.8E1,6.8E1,4.99E2,3.8E1,1E0,4.5E1,4E0,1.19E2,4.3E1,6.5E1,1.16E2,2.6E1,1.2E1,3E0,6.5E1,4E1,4.59E2],"tree_param":{"num_deleted":"0","num_feature":"9","num_nodes":"35","size_leaf_vector":"1"}},{"base_weights":[6.1545795E-1,1.4502776E-1,7.115926E1,-2.1785343E-1,1.2940973E1,3.442613E1,1.4577906E1,-3.5043603E-1,3.3645172E1,8.433752E0,2.2019938E1,5.4850955E0,1.9370972E0,7.068405E0,-9.4671273E-1,4.7863084E-1,4.166936E0,2.1912878E0,3.9732E0,3.4191116E1,1.0235829E1,3.3896203E0,1.5085654E-1,-2.511424E-1,2.631505E-1,-2.261444E-2,8.725731E-1,5.735046E-1,4.176479E0,3.7129822E-1,1.5521016E0],"categories":[],"categories_nodes":[],"categories_segments":[],"categories_sizes":[],"default_left":[0,0,0,0,0,0,0,0,0,0,0,0,0,0,0,0,0,0,0,0,0,0,0,0,0,0,0,0,0,0,0],"id":42,"left_children":[1,3,5,7,9,11,-1,13,15,17,19,-1,-1,21,23,-1,-1,-1,25,27,29,-1,-1,-1,-1,-1,-1,-1,-1,-1,-1],"loss_changes":[3.5067215E4,4.883041E3,1.4168523E4,4.6047E3,1.0009956E3,7.8247754E2,0E0,4.5188477E3,7.26833E2,1.1755471E3,9.4086426E2,0E0,0E0,1.1284892E4,5.297548E3,0E0,0E0,0E0,3.4125104E2,6.225449E2,1.4921759E2,0E0,0E0,0E0,0E0,0E0,0E0,0E0,0E0,0E0,0E0],"parents":[2147483647,0,0,1,1,2,2,3,3,4,4,5,5,7,7,8,8,9,9,10,10,13,13,14,14,18,18,19,19,20,20],"right_children":[2,4,6,8,10,12,-1,14,16,18,20,-1,-1,22,24,-1,-1,-1,26,28,30,-1,-1,-1,-1,-1,-1,-1,-1,-1,-1],"split_conditions":[8.531916E2,7.446115E2,3E0,1.529E3,7.990157E2,9E0,1.4577906E1,1.02E2,9E0,1.7554167E2,1.53E2,5.4850955E0,1.9370972E0,1E0,5E0,4.7863084E-1,4.166936E0,2.1912878E0,7.7303796E2,1.8470833E2,1.5E1,3.3896203E0,1.5085654E-1,-2.511424E-1,2.631505E-1,-2.261444E-2,8.725731E-1,5.735046E-1,4.176479E0,3.7129822E-1,1.5521016E0],"split_indices":[7,7,1,4,7,0,0,3,0,6,4,0,0,1,1,0,0,0,7,6,0,0,0,0,0,0,0,0,0,0,0],"split_type":[0,0,0,0,0,0,0,0,0,0,0,0,0,0,0,0,0,0,0,0,0,0,0,0,0,0,0,0,0,0,0],"sum_hessian":[1.056E3,1.05E3,6E0,1.022E3,2.8E1,5E0,1E0,1.019E3,3E0,2E1,8E0,1E0,4E0,7.5E1,9.44E2,1E0,2E0,4E0,1.6E1,3E0,5E0,1.2E1,6.3E1,6.57E2,2.87E2,9E0,7E0,1E0,2E0,3E0,2E0],"tree_param":{"num_deleted":"0","num_feature":"9","num_nodes":"31","size_leaf_vector":"1"}},{"base_weights":[5.9167224E-1,1.4756824E-1,6.7186195E1,-8.782226E-1,4.4632845E0,3.222052E1,1.3849011E1,-2.3315358E-1,-1.09797325E1,5.065569E1,1.0180094E0,5.2108397E0,1.7821264E0,-3.842349E-1,6.0240417E0,1.8560009E1,-1.3888646E1,2.1888166E1,-1.5122452E1,-1.6453987E1,6.433332E0,1.3831294E-1,-4.2038557E-1,-7.227745E-2,4.7845573E0,-1.7391558E0,8.1127934E-2,-2.9554727E0,3.3215184E0,-2.9460344E0,6.701211E-1,1.3319696E0,-6.520351E-1],"categories":[],"categories_nodes":[],"categories_segments":[],"categories_sizes":[],"default_left":[0,0,0,0,0,0,0,0,0,0,0,0,0,0,0,0,0,0,0,0,0,0,0,0,0,0,0,0,0,0,0,0,0],"id":43,"left_children":[1,3,5,7,9,11,-1,13,15,17,19,-1,-1,21,-1,23,25,-1,27,29,31,-1,-1,-1,-1,-1,-1,-1,-1,-1,-1,-1,-1],"loss_changes":[3.1250746E4,4.6567197E3,1.2990105E4,5.5361855E3,3.2095824E4,7.895864E2,0E0,7.332289E3,4.6401313E3,1.5822831E5,1.7988373E4,0E0,0E0,5.399593E3,0E0,2.8581182E3,2.4342578E3,0E0,8.655507E3,1.3749834E4,1.30213955E4,0E0,0E0,0E0,0E0,0E0,0E0,0E0,0E0,0E0,0E0,0E0,0E0],"parents":[2147483647,0,0,1,1,2,2,3,3,4,4,5,5,7,7,8,8,9,9,10,10,13,13,15,15,16,16,18,18,19,19,20,20],"right_children":[2,4,6,8,10,12,-1,14,16,18,20,-1,-1,22,-1,24,26,-1,28,30,32,-1,-1,-1,-1,-1,-1,-1,-1,-1,-1,-1,-1],"split_conditions":[8.531916E2,2.18E2,3E0,2.66E2,3.1454086E2,9E0,1.3849011E1,2.65E2,1E0,2.3933333E2,4.5793982E2,5.2108397E0,1.7821264E0,1.4E1,6.0240417E0,2.9E2,1.845E2,2.1888166E1,3.38E2,2.2566667E2,2.0745833E2,1.3831294E-1,-4.2038557E-1,-7.227745E-2,4.7845573E0,-1.7391558E0,8.1127934E-2,-2.9554727E0,3.3215184E0,-2.9460344E0,6.701211E-1,1.3319696E0,-6.520351E-1],"split_indices":[7,5,1,3,7,0,0,3,0,5,7,0,0,0,0,3,6,0,3,6,6,0,0,0,0,0,0,0,0,0,0,0,0],"split_type":[0,0,0,0,0,0,0,0,0,0,0,0,0,0,0,0,0,0,0,0,0,0,0,0,0,0,0,0,0,0,0,0,0],"sum_hessian":[1.056E3,1.05E3,6E0,8.49E2,2.01E2,5E0,1E0,7.99E2,5E1,1.3E1,1.88E2,1E0,4E0,7.98E2,1E0,4E0,4.6E1,3E0,1E1,4.4E1,1.44E2,5.46E2,2.52E2,3E0,1E0,3.7E1,9E0,8E0,2E0,2.8E1,1.6E1,9.4E1,5E1],"tree_param":{"num_deleted":"0","num_feature":"9","num_nodes":"33","size_leaf_vector":"1"}},{"base_weights":[5.8009017E-1,1.6083759E-1,6.3445E1,-3.498606E0,1.3928474E0,3.016398E1,1.3156555E1,-2.5753486E0,-2.2749332E1,6.9515777E0,-7.626342E-1,4.9502993E0,1.639558E1,-3.9597392E0,6.715925E1,-3.3365483E0,-1.2136261E0,3.3909929E0,5.538684E1,-1.0500708E1,5.8274513E-1,1.8140687E0,4.7075805E-1,-2.7911654E-1,-2.9095924E0,9.815984E-1,1.021161E1,1.3665111E0,-1.5687821E0,-8.1433153E-1,8.7659806E-1,1.1938728E1,-5.4537285E-2,1.8414364E0,-1.2094034E0,-5.44153E-1,3.3560765E-1],"categories":[],"categories_nodes":[],"categories_segments":[],"categories_sizes":[],"default_left":[0,0,0,0,0,0,0,0,0,0,0,0,0,0,0,0,0,0,0,0,0,0,0,0,0,0,0,0,0,0,0,0,0,0,0,0,0],"id":44,"left_children":[1,3,5,7,9,11,-1,13,15,17,19,-1,21,23,25,-1,27,29,31,33,35,-1,-1,-1,-1,-1,-1,-1,-1,-1,-1,-1,-1,-1,-1,-1,-1],"loss_changes":[2.7848377E4,4.743275E3,1.1901309E4,4.6513564E3,9.434932E3,7.8597314E2,0E0,2.4787072E4,2.703022E3,3.7752918E4,7.4477163E3,0E0,1.6585205E1,7.262162E3,9.02033E3,0E0,1.2911644E3,1.2842719E4,5.3760402E4,3.4016143E3,8.371918E3,0E0,0E0,0E0,0E0,0E0,0E0,0E0,0E0,0E0,0E0,0E0,0E0,0E0,0E0,0E0,0E0],"parents":[2147483647,0,0,1,1,2,2,3,3,4,4,5,5,7,7,8,8,9,9,10,10,12,12,13,13,14,14,16,16,17,17,18,18,19,19,20,20],"right_children":[2,4,6,8,10,12,-1,14,16,18,20,-1,22,24,26,-1,28,30,32,34,36,-1,-1,-1,-1,-1,-1,-1,-1,-1,-1,-1,-1,-1,-1,-1,-1],"split_conditions":[8.531916E2,6E0,3E0,1.9083333E2,1.1E1,9E0,1.3156555E1,1.8733333E2,2.1266667E2,1.7666667E2,1.3633333E2,4.9502993E0,2E0,1.7566667E2,1.32E2,-3.3365483E0,2.0870833E2,1.18666664E2,1.26E2,1.04E2,2E0,1.8140687E0,4.7075805E-1,-2.7911654E-1,-2.9095924E0,9.815984E-1,1.021161E1,1.3665111E0,-1.5687821E0,-8.1433153E-1,8.7659806E-1,1.1938728E1,-5.4537285E-2,1.8414364E0,-1.2094034E0,-5.44153E-1,3.3560765E-1],"split_indices":[7,0,1,5,0,0,0,5,5,5,5,0,1,5,3,0,6,5,3,4,1,0,0,0,0,0,0,0,0,0,0,0,0,0,0,0,0],"split_type":[0,0,0,0,0,0,0,0,0,0,0,0,0,0,0,0,0,0,0,0,0,0,0,0,0,0,0,0,0,0,0,0,0,0,0,0,0],"sum_hessian":[1.056E3,1.05E3,6E0,2.64E2,7.86E2,5E0,1E0,2.53E2,1.1E1,2.19E2,5.67E2,1E0,4E0,2.49E2,4E0,7E0,4E0,2.05E2,1.4E1,6.8E1,4.99E2,3E0,1E0,2.39E2,1E1,2E0,2E0,2E0,2E0,6.5E1,1.4E2,6E0,8E0,3E0,6.5E1,1.57E2,3.42E2],"tree_param":{"num_deleted":"0","num_feature":"9","num_nodes":"37","size_leaf_vector":"1"}},{"base_weights":[5.573016E-1,1.6077314E-1,6.0013603E1,-1.6995285E0,2.2778628E0,2.8353434E1,1.2498731E1,3.3827814E-1,-6.110931E0,-1.2803728E1,3.5684006E0,4.702783E0,1.5212988E1,-2.9283923E-1,2.6667374E1,1.5856104E0,-1.0484066E1,3.4581707E0,-1.6299744E1,9.749568E1,2.7274306E0,1.678012E1,4.4722292E-1,-2.872376E-1,4.0267608E-1,5.1614604E0,-3.6133286E-1,6.2909096E-1,-2.2085035E0,-8.078481E-1,-1.9545987E0,-1.0432875E-1,-2.9215567E0,2.852351E-1,1.9071283E1,9.6412696E-2,2.5033395E0,5.173767E-1,1.8924316E0],"categories":[],"categories_nodes":[],"categories_segments":[],"categories_sizes":[],"default_left":[0,0,0,0,0,0,0,0,0,0,0,0,0,0,0,0,0,0,0,0,0,0,0,0,0,0,0,0,0,0,0,0,0,0,0,0,0,0,0],"id":45,"left_children":[1,3,5,7,9,11,-1,13,15,17,19,-1,21,23,25,27,29,-1,31,33,35,37,-1,-1,-1,-1,-1,-1,-1,-1,-1,-1,-1,-1,-1,-1,-1,-1,-1],"loss_changes":[2.4910303E4,4.1431567E3,1.085573E4,5.036235E3,9.621664E3,7.5690576E2,0E0,6.3886406E3,5.9740913E3,7.024422E3,3.5595562E4,0E0,9.116455E0,4.201172E3,6.9852754E3,7.37847E3,2.3054102E3,0E0,7.2603574E3,3.4745543E4,1.7714684E4,1.6352539E0,0E0,0E0,0E0,0E0,0E0,0E0,0E0,0E0,0E0,0E0,0E0,0E0,0E0,0E0,0E0,0E0,0E0],"parents":[2147483647,0,0,1,1,2,2,3,3,4,4,5,5,7,7,8,8,9,9,10,10,12,12,13,13,14,14,15,15,16,16,18,18,19,19,20,20,21,21],"right_children":[2,4,6,8,10,12,-1,14,16,18,20,-1,22,24,26,28,30,-1,32,34,36,38,-1,-1,-1,-1,-1,-1,-1,-1,-1,-1,-1,-1,-1,-1,-1,-1,-1],"split_conditions":[8.531916E2,1.555E2,3E0,1.36E2,2.722267E2,9E0,1.2498731E1,1.33E2,3.7656808E2,1E0,2.758684E2,4.702783E0,2E0,1.3E2,1.4625E2,1.85E2,5E0,3.4581707E0,2.0879211E2,2.18E2,6E0,1.2E1,4.4722292E-1,-2.872376E-1,4.0267608E-1,5.1614604E0,-3.6133286E-1,6.2909096E-1,-2.2085035E0,-8.078481E-1,-1.9545987E0,-1.0432875E-1,-2.9215567E0,2.852351E-1,1.9071283E1,9.6412696E-2,2.5033395E0,5.173767E-1,1.8924316E0],"split_indices":[7,5,1,3,7,0,0,3,7,1,7,0,1,4,6,4,1,0,7,5,1,0,0,0,0,0,0,0,0,0,0,0,0,0,0,0,0,0,0],"split_type":[0,0,0,0,0,0,0,0,0,0,0,0,0,0,0,0,0,0,0,0,0,0,0,0,0,0,0,0,0,0,0,0,0,0,0,0,0,0,0],"sum_hessian":[1.056E3,1.05E3,6E0,5.59E2,4.91E2,5E0,1E0,3.83E2,1.76E2,3.8E1,4.53E2,1E0,4E0,3.75E2,8E0,6.4E1,1.12E2,2E0,3.6E1,3E0,4.5E2,3E0,1E0,2.35E2,1.4E2,4E0,4E0,5.4E1,1E1,9E1,2.2E1,1.7E1,1.9E1,2E0,1E0,4.18E2,3.2E1,1E0,2E0],"tree_param":{"num_deleted":"0","num_feature":"9","num_nodes":"39","size_leaf_vector":"1"}},{"base_weights":[5.422689E-1,1.6654047E-1,5.687774E1,4.7840774E-2,3.1224228E1,2.6778055E1,1.1873792E1,1.414392E0,-2.5024388E0,1.0890945E0,4.6112037E0,4.467645E0,1.4263086E1,4.8034504E-1,3.235403E1,8.570765E0,-6.3060236E0,1.5704559E0,4.248596E-1,-2.7446118E-1,3.7724578E-1,2.312934E0,1.0381158E1,1.9206108E0,-2.9445103E-1,-7.745038E-1,2.563796E0],"categories":[],"categories_nodes":[],"categories_segments":[],"categories_sizes":[],"default_left":[0,0,0,0,0,0,0,0,0,0,0,0,0,0,0,0,0,0,0,0,0,0,0,0,0,0,0],"id":46,"left_children":[1,3,5,7,9,11,-1,13,15,-1,-1,-1,17,19,21,23,25,-1,-1,-1,-1,-1,-1,-1,-1,-1,-1],"loss_changes":[2.2363875E4,3.873058E3,9.854229E3,3.655911E3,7.0866846E2,7.067632E2,0E0,1.9722525E4,1.5469186E4,0E0,0E0,0E0,5.4557495E0,7.0599897E3,1.0782383E4,1.156863E4,1.2747792E4,0E0,0E0,0E0,0E0,0E0,0E0,0E0,0E0,0E0,0E0],"parents":[2147483647,0,0,1,1,2,2,3,3,4,4,5,5,7,7,8,8,12,12,13,13,14,14,15,15,16,16],"right_children":[2,4,6,8,10,12,-1,14,16,-1,-1,-1,18,20,22,24,26,-1,-1,-1,-1,-1,-1,-1,-1,-1,-1],"split_conditions":[8.531916E2,1.529E3,3E0,1.53E2,1.5E1,9E0,1.1873792E1,1.51E2,1.16E2,1.0890945E0,4.6112037E0,4.467645E0,2E0,1.25E2,2.2E1,1.2E1,2.3E1,1.5704559E0,4.248596E-1,-2.7446118E-1,3.7724578E-1,2.312934E0,1.0381158E1,1.9206108E0,-2.9445103E-1,-7.745038E-1,2.563796E0],"split_indices":[7,4,1,4,0,0,0,4,3,0,0,0,1,3,0,0,0,0,0,0,0,0,0,0,0,0,0],"split_type":[0,0,0,0,0,0,0,0,0,0,0,0,0,0,0,0,0,0,0,0,0,0,0,0,0,0,0],"sum_hessian":[1.056E3,1.05E3,6E0,1.047E3,3E0,5E0,1E0,6.82E2,3.65E2,2E0,1E0,1E0,4E0,6.63E2,1.9E1,9.3E1,2.72E2,3E0,1E0,3.35E2,3.28E2,1.8E1,1E0,4.8E1,4.5E1,2.61E2,1.1E1],"tree_param":{"num_deleted":"0","num_feature":"9","num_nodes":"27","size_leaf_vector":"1"}},{"base_weights":[5.2612144E-1,7.465489E-2,4.3449696E1,-2.4105452E1,2.138161E-1,1.1280103E1,2.523446E1,-2.786635E0,-2.6504824E-1,-2.5146232E0,1.4763283E0,1.1074328E0,3.2828827E1,3.761408E-1,-7.9223657E0,-7.5251564E-2,6.0371885E0,4.317868E0,8.08608E-1,-1.3861772E0,1.5844826E-1,-1.181199E0,-2.247018E-1,2.224029E0,-1.2635048E-1,4.0597445E-1,1.8098856E1],"categories":[],"categories_nodes":[],"categories_segments":[],"categories_sizes":[],"default_left":[0,0,0,0,0,0,0,0,0,0,0,0,0,0,0,0,0,0,0,0,0,0,0,0,0,0,0],"id":47,"left_children":[1,3,5,7,9,-1,11,-1,-1,13,15,-1,17,19,21,23,25,-1,-1,-1,-1,-1,-1,-1,-1,-1,-1],"loss_changes":[2.047989E4,3.5282388E3,1.1049285E4,4.1028027E2,3.5930771E3,0E0,7.1181445E2,0E0,0E0,